{"learner":{"attributes":{"scikit_learn":"{\"_estimator_type\": \"classifier\"}"},"feature_names":["customer_age","employment_type","monthly_income","credit_score","time_in_job_months","loan_amount","loan_term_months","loan_type","loan_purpose","existing_loan_count","existing_emi_total","dti_ratio","prev_defaults_count","employment_rate","interest_rate","inflation_rate","gdp_growth_rate"],"feature_types":["int","int","int","int","int","int","int","int","int","int","int","float","int","float","float","float","float"],"gradient_booster":{"model":{"gbtree_model_param":{"num_parallel_tree":"1","num_trees":"150"},"iteration_indptr":[0,1,2,3,4,5,6,7,8,9,10,11,12,13,14,15,16,17,18,19,20,21,22,23,24,25,26,27,28,29,30,31,32,33,34,35,36,37,38,39,40,41,42,43,44,45,46,47,48,49,50,51,52,53,54,55,56,57,58,59,60,61,62,63,64,65,66,67,68,69,70,71,72,73,74,75,76,77,78,79,80,81,82,83,84,85,86,87,88,89,90,91,92,93,94,95,96,97,98,99,100,101,102,103,104,105,106,107,108,109,110,111,112,113,114,115,116,117,118,119,120,121,122,123,124,125,126,127,128,129,130,131,132,133,134,135,136,137,138,139,140,141,142,143,144,145,146,147,148,149,150],"tree_info":[0,0,0,0,0,0,0,0,0,0,0,0,0,0,0,0,0,0,0,0,0,0,0,0,0,0,0,0,0,0,0,0,0,0,0,0,0,0,0,0,0,0,0,0,0,0,0,0,0,0,0,0,0,0,0,0,0,0,0,0,0,0,0,0,0,0,0,0,0,0,0,0,0,0,0,0,0,0,0,0,0,0,0,0,0,0,0,0,0,0,0,0,0,0,0,0,0,0,0,0,0,0,0,0,0,0,0,0,0,0,0,0,0,0,0,0,0,0,0,0,0,0,0,0,0,0,0,0,0,0,0,0,0,0,0,0,0,0,0,0,0,0,0,0,0,0,0,0,0,0],"trees":[{"base_weights":[-4.5243913E-4,-5.516363E-1,2.1772301E0,3.6553726E-1,6.5743226E-1,-4.098397E-1,5.536706E-1,-8.555895E-1,5.313411E-1,7.533372E-1,-1.7896783E-1,-3.5014224E-1,9.624819E-2,-8.89028E-2,3.6405438E-1,3.4633765E-1,1.046254E-1,1.2241285E-1,-2.791275E-1],"categories":[],"categories_nodes":[],"categories_segments":[],"categories_sizes":[],"default_left":[0,0,0,0,0,0,0,0,0,0,0,0,0,0,0,0,0,0,0],"id":0,"left_children":[1,-1,3,5,-1,7,9,11,13,15,17,-1,-1,-1,-1,-1,-1,-1,-1],"loss_changes":[5.1069457E4,0E0,1.4953516E2,7.0316114E0,0E0,4.5169234E0,5.688431E0,2.9232068E0,2.4650636E0,4.4702396E0,4.3226457E0,0E0,0E0,0E0,0E0,0E0,0E0,0E0,0E0],"parents":[2147483647,0,0,2,2,3,3,5,5,6,6,7,7,8,8,9,9,10,10],"right_children":[2,-1,4,6,-1,8,10,12,14,16,18,-1,-1,-1,-1,-1,-1,-1,-1],"split_conditions":[5.99E2,-5.516363E-1,6.01E2,5.11E3,6.5743226E-1,1.31E2,8.3E5,1.52E-1,2E0,9.1E1,2.1035E4,-3.5014224E-1,9.624819E-2,-8.89028E-2,3.6405438E-1,3.4633765E-1,1.046254E-1,1.2241285E-1,-2.791275E-1],"split_indices":[3,0,3,10,0,4,5,11,9,4,10,0,0,0,0,0,0,0,0],"split_type":[0,0,0,0,0,0,0,0,0,0,0,0,0,0,0,0,0,0,0],"sum_hessian":[1.2754807E4,6.9163687E3,5.838438E3,4.5647686E1,5.7927905E3,8.682983E0,3.6964703E1,5.954046E0,2.7289376E0,2.9025974E1,7.938728E0,4.7136197E0,1.2404262E0,1.4885114E0,1.2404262E0,1.3644689E1,1.5381286E1,4.7136197E0,3.2251081E0],"tree_param":{"num_deleted":"0","num_feature":"17","num_nodes":"19","size_leaf_vector":"1"}},{"base_weights":[-1.3419566E-2,-4.4491744E-1,1.6062704E0,2.6223305E-1,4.851851E-1,-5.419453E-1,3.7425724E-1,-8.043288E-1,8.104345E-2,4.695568E-1,-3.0734667E-1,-7.161567E-2,-3.30354E-1,1.7841865E-1,-7.190514E-2,2.171645E-1,-2.2734816E-1],"categories":[],"categories_nodes":[],"categories_segments":[],"categories_sizes":[],"default_left":[0,0,0,0,0,0,0,0,0,0,0,0,0,0,0,0,0],"id":1,"left_children":[1,-1,3,5,-1,7,9,11,-1,13,15,-1,-1,-1,-1,-1,-1],"loss_changes":[2.780878E4,0E0,8.183984E1,4.379513E0,0E0,1.5122195E0,2.8260717E0,5.5054855E-1,0E0,3.3932648E0,3.181962E0,0E0,0E0,0E0,0E0,0E0,0E0],"parents":[2147483647,0,0,2,2,3,3,5,5,6,6,7,7,9,9,10,10],"right_children":[2,-1,4,6,-1,8,10,12,-1,14,16,-1,-1,-1,-1,-1,-1],"split_conditions":[5.99E2,-4.4491744E-1,6.01E2,3.8895E4,4.851851E-1,1.36E2,1.37655E5,6.8E1,8.104345E-2,6E1,1E0,-7.161567E-2,-3.30354E-1,1.7841865E-1,-7.190514E-2,2.171645E-1,-2.2734816E-1],"split_indices":[3,0,3,2,0,4,2,4,0,0,7,0,0,0,0,0,0],"split_type":[0,0,0,0,0,0,0,0,0,0,0,0,0,0,0,0,0],"sum_hessian":[1.16806E4,6.124012E3,5.556587E3,4.5362595E1,5.511224E3,5.0772467E0,4.028535E1,3.8446205E0,1.2326264E0,3.561665E1,4.6687007E0,1.9442619E0,1.9003584E0,3.0410957E1,5.2056923E0,1.2348968E0,3.4338038E0],"tree_param":{"num_deleted":"0","num_feature":"17","num_nodes":"17","size_leaf_vector":"1"}},{"base_weights":[-1.57067E-2,-3.928428E-1,1.3684535E0,1.7970383E-1,4.1396222E-1,-2.4591847E-1,3.692671E-1,2.1309322E-1,-8.4670067E-1,9.5691365E-1,6.680409E-2,1.6339663E-1,-1.8082124E-1,9.559739E-2,-3.5172832E-1,3.6563915E-1,-4.60847E-2,-3.9011363E-2,2.6390412E-1],"categories":[],"categories_nodes":[],"categories_segments":[],"categories_sizes":[],"default_left":[0,0,0,0,0,0,0,0,0,0,0,0,0,0,0,0,0,0,0],"id":2,"left_children":[1,-1,3,5,-1,7,9,11,13,15,17,-1,-1,-1,-1,-1,-1,-1,-1],"loss_changes":[1.7443924E4,0E0,6.364258E1,3.7966962E0,0E0,4.248991E0,5.65546E0,2.8067505E0,2.8755107E0,3.3454046E0,3.685601E0,0E0,0E0,0E0,0E0,0E0,0E0,0E0,0E0],"parents":[2147483647,0,0,2,2,3,3,5,5,6,6,7,7,8,8,9,9,10,10],"right_children":[2,-1,4,6,-1,8,10,12,14,16,18,-1,-1,-1,-1,-1,-1,-1,-1],"split_conditions":[5.99E2,-3.928428E-1,6.01E2,7.835E3,4.1396222E-1,1E0,1.2663E4,9.234E1,1.8E0,3.68E0,1.47E2,1.6339663E-1,-1.8082124E-1,9.559739E-2,-3.5172832E-1,3.6563915E-1,-4.60847E-2,-3.9011363E-2,2.6390412E-1],"split_indices":[3,0,3,10,0,1,10,13,16,16,4,0,0,0,0,0,0,0,0],"split_type":[0,0,0,0,0,0,0,0,0,0,0,0,0,0,0,0,0,0,0],"sum_hessian":[9.738942E3,5.033864E3,4.705079E3,4.4931816E1,4.6601475E3,1.3753682E1,3.1178135E1,8.162584E0,5.5910983E0,9.859216E0,2.1318918E1,6.040182E0,2.1224022E0,1.2261136E0,4.3649845E0,7.898994E0,1.9602219E0,1.7839117E1,3.479802E0],"tree_param":{"num_deleted":"0","num_feature":"17","num_nodes":"19","size_leaf_vector":"1"}},{"base_weights":[-1.6205868E-2,-3.6264315E-1,1.2380139E0,1.3478288E-1,3.7529054E-1,2.6272747E-1,-2.937434E-1,-4.4951063E-1,3.669755E-1,2.8517056E-1,-1.13085E0,-3.1086513E-1,6.855775E-2,-8.532125E-2,1.5567635E-1,2.111033E-1,-1.7509061E-1,-4.141469E-1,-7.2287865E-2],"categories":[],"categories_nodes":[],"categories_segments":[],"categories_sizes":[],"default_left":[0,0,0,0,0,0,0,0,0,0,0,0,0,0,0,0,0,0,0],"id":3,"left_children":[1,-1,3,5,-1,7,9,11,13,15,17,-1,-1,-1,-1,-1,-1,-1,-1],"loss_changes":[1.1639498E4,0E0,5.403711E1,2.5521011E0,0E0,2.785171E0,5.5809298E0,2.2080054E0,3.2488608E0,3.0334475E0,6.975975E-1,0E0,0E0,0E0,0E0,0E0,0E0,0E0,0E0],"parents":[2147483647,0,0,2,2,3,3,5,5,6,6,7,7,8,8,9,9,10,10],"right_children":[2,-1,4,6,-1,8,10,12,14,16,18,-1,-1,-1,-1,-1,-1,-1,-1],"split_conditions":[5.99E2,-3.6264315E-1,6.01E2,1E0,3.7529054E-1,3.974E3,1E0,1.22E2,9.009E1,3E0,1.18172E5,-3.1086513E-1,6.855775E-2,-8.532125E-2,1.5567635E-1,2.111033E-1,-1.7509061E-1,-4.141469E-1,-7.2287865E-2],"split_indices":[3,0,3,12,0,10,1,4,13,9,2,0,0,0,0,0,0,0,0],"split_type":[0,0,0,0,0,0,0,0,0,0,0,0,0,0,0,0,0,0,0],"sum_hessian":[7.779514E3,3.9877263E3,3.7917878E3,4.4140144E1,3.7476477E3,3.4289326E1,9.850819E0,3.9551585E0,3.0334167E1,6.213272E0,3.6375465E0,1.8371805E0,2.1179779E0,5.572694E0,2.4761475E1,4.321603E0,1.8916692E0,2.410133E0,1.2274137E0],"tree_param":{"num_deleted":"0","num_feature":"17","num_nodes":"19","size_leaf_vector":"1"}},{"base_weights":[-1.641323E-2,-3.435414E-1,1.1564353E0,8.178269E-2,3.5168016E-1,-5.897693E-1,1.3790353E-1,6.624383E-2,-3.5677397E-1,2.655446E-1,-2.5053483E-1,-5.4517318E-2,1.680758E-1,2.0758329E-2,-3.4629205E-1],"categories":[],"categories_nodes":[],"categories_segments":[],"categories_sizes":[],"default_left":[0,0,0,0,0,0,0,0,0,0,0,0,0,0,0],"id":4,"left_children":[1,-1,3,5,-1,7,9,-1,-1,11,13,-1,-1,-1,-1],"loss_changes":[8.033844E3,0E0,5.0540527E1,1.7503086E0,0E0,2.0142932E0,2.133008E0,0E0,0E0,4.300892E0,3.207303E0,0E0,0E0,0E0,0E0],"parents":[2147483647,0,0,2,2,3,3,5,5,6,6,9,9,10,10],"right_children":[2,-1,4,6,-1,8,10,-1,-1,12,14,-1,-1,-1,-1],"split_conditions":[5.99E2,-3.435414E-1,6.01E2,2.3E1,3.5168016E-1,5.6E1,7.8E5,6.624383E-2,-3.5677397E-1,7.835E3,5E0,-5.4517318E-2,1.680758E-1,2.0758329E-2,-3.4629205E-1],"split_indices":[3,0,3,0,0,4,5,0,0,10,8,0,0,0,0],"split_type":[0,0,0,0,0,0,0,0,0,0,0,0,0,0,0],"sum_hessian":[6.0666685E3,3.0914983E3,2.97517E3,4.328399E1,2.9318857E3,2.6048584E0,4.067913E1,1.375983E0,1.2288754E0,3.0856157E1,9.822973E0,1.2408122E1,1.8448034E1,7.9381247E0,1.8848484E0],"tree_param":{"num_deleted":"0","num_feature":"17","num_nodes":"15","size_leaf_vector":"1"}},{"base_weights":[-1.6474161E-2,-3.308208E-1,1.1011996E0,4.7477003E-2,3.362926E-1,-7.772305E-3,6.654078E-1,2.806747E-1,-1.5975817E-1,2.8896716E-1,7.021724E-3,2.1093677E-1,-1.9664878E-1,7.134909E-2,-1.770648E-1],"categories":[],"categories_nodes":[],"categories_segments":[],"categories_sizes":[],"default_left":[0,0,0,0,0,0,0,0,0,0,0,0,0,0,0],"id":5,"left_children":[1,-1,3,5,-1,7,9,11,13,-1,-1,-1,-1,-1,-1],"loss_changes":[5.662074E3,0E0,4.7844482E1,1.4864521E0,0E0,1.8341905E0,6.605115E-1,6.174637E0,4.824286E0,0E0,0E0,0E0,0E0,0E0,0E0],"parents":[2147483647,0,0,2,2,3,3,5,5,6,6,7,7,8,8],"right_children":[2,-1,4,6,-1,8,10,12,14,-1,-1,-1,-1,-1,-1],"split_conditions":[5.99E2,-3.308208E-1,6.01E2,1.7E2,3.362926E-1,2.02E0,9.182E1,1.17484E5,1E0,2.8896716E-1,7.021724E-3,2.1093677E-1,-1.9664878E-1,7.134909E-2,-1.770648E-1],"split_indices":[3,0,3,4,0,16,13,2,1,0,0,0,0,0,0],"split_type":[0,0,0,0,0,0,0,0,0,0,0,0,0,0,0],"sum_hessian":[4.66165E3,2.364052E3,2.2975977E3,4.23881E1,2.2552097E3,3.9815598E1,2.5724986E0,1.3447496E1,2.6368103E1,1.4155158E0,1.1569828E0,9.4376745E0,4.009822E0,1.39400215E1,1.24280815E1],"tree_param":{"num_deleted":"0","num_feature":"17","num_nodes":"15","size_leaf_vector":"1"}},{"base_weights":[-1.6311944E-2,-3.220604E-1,1.0614496E0,3.9818797E-2,3.2584453E-1,-4.8508716E-1,1.169094E-1,-6.895624E-1,4.5411963E-2,2.130844E-1,-2.5821078E-1,-7.172322E-2,-2.7639392E-1,1.3083853E-1,-8.514098E-2,-1.897148E-1,2.792431E-1],"categories":[],"categories_nodes":[],"categories_segments":[],"categories_sizes":[],"default_left":[0,0,0,0,0,0,0,0,0,0,0,0,0,0,0,0,0],"id":6,"left_children":[1,-1,3,5,-1,7,9,11,-1,13,15,-1,-1,-1,-1,-1,-1],"loss_changes":[4.0455952E3,0E0,4.432141E1,1.7781277E0,0E0,8.386164E-1,1.4222983E0,2.4431992E-1,0E0,3.5276012E0,4.2305346E0,0E0,0E0,0E0,0E0,0E0,0E0],"parents":[2147483647,0,0,2,2,3,3,5,5,6,6,7,7,9,9,10,10],"right_children":[2,-1,4,6,-1,8,10,12,-1,14,16,-1,-1,-1,-1,-1,-1],"split_conditions":[5.99E2,-3.220604E-1,6.01E2,3.8895E4,3.2584453E-1,1.36E2,2.0185E4,6.8E1,4.5411963E-2,1.3E2,1.28E2,-7.172322E-2,-2.7639392E-1,1.3083853E-1,-8.514098E-2,-1.897148E-1,2.792431E-1],"split_indices":[3,0,3,2,0,4,10,4,0,4,4,0,0,0,0,0,0],"split_type":[0,0,0,0,0,0,0,0,0,0,0,0,0,0,0,0,0],"sum_hessian":[3.5485305E3,1.791336E3,1.7571946E3,4.1540546E1,1.715654E3,4.641869E0,3.6898678E1,3.4500425E0,1.1918265E0,2.9712746E1,7.185931E0,1.8620802E0,1.5879622E0,2.0591753E1,9.120992E0,5.82197E0,1.3639612E0],"tree_param":{"num_deleted":"0","num_feature":"17","num_nodes":"17","size_leaf_vector":"1"}},{"base_weights":[-1.6268624E-2,-3.1588227E-1,1.0302054E0,2.4717169E-2,3.185488E-1,1.230005E-1,-2.98045E-1,-4.3791035E-1,2.095233E-1,1.1225167E-1,-8.669663E-1,-2.4532224E-1,7.6178886E-2,9.516125E-2,-9.4503485E-2,-1.678908E-1,1.5944174E-1,-4.201894E-2,-3.2401127E-1],"categories":[],"categories_nodes":[],"categories_segments":[],"categories_sizes":[],"default_left":[0,0,0,0,0,0,0,0,0,0,0,0,0,0,0,0,0,0,0],"id":7,"left_children":[1,-1,3,5,-1,7,9,11,13,15,17,-1,-1,-1,-1,-1,-1,-1,-1],"loss_changes":[2.9151357E3,0E0,4.2495117E1,1.3626403E0,0E0,1.681186E0,2.4431E0,1.442825E0,1.7407422E0,2.1913712E0,5.18646E-1,0E0,0E0,0E0,0E0,0E0,0E0,0E0,0E0],"parents":[2147483647,0,0,2,2,3,3,5,5,6,6,7,7,8,8,9,9,10,10],"right_children":[2,-1,4,6,-1,8,10,12,14,16,18,-1,-1,-1,-1,-1,-1,-1,-1],"split_conditions":[5.99E2,-3.1588227E-1,6.01E2,1E0,3.185488E-1,3.974E3,1E0,1.31E2,6E1,1.1E-1,1.42E-1,-2.4532224E-1,7.6178886E-2,9.516125E-2,-9.4503485E-2,-1.678908E-1,1.5944174E-1,-4.201894E-2,-3.2401127E-1],"split_indices":[3,0,3,12,0,10,1,4,0,11,11,0,0,0,0,0,0,0,0],"split_type":[0,0,0,0,0,0,0,0,0,0,0,0,0,0,0,0,0,0,0],"sum_hessian":[2.6851316E3,1.3488798E3,1.3362517E3,4.079984E1,1.2954519E3,3.1750502E1,9.049336E0,3.7003863E0,2.8050116E1,5.723986E0,3.3253505E0,2.2713833E0,1.429003E0,2.360048E1,4.4496355E0,2.0705538E0,3.6534324E0,1.1294675E0,2.195883E0],"tree_param":{"num_deleted":"0","num_feature":"17","num_nodes":"19","size_leaf_vector":"1"}},{"base_weights":[-1.643525E-2,-3.1144327E-1,1.0035185E0,3.6328651E-3,3.133456E-1,-5.4029554E-1,5.271374E-2,3.462066E-2,-2.9202053E-1,-3.9593868E-2,4.0755758E-1,1.739716E-2,-2.0273273E-1,-1.0269795E-1,1.9711833E-1],"categories":[],"categories_nodes":[],"categories_segments":[],"categories_sizes":[],"default_left":[0,0,0,0,0,0,0,0,0,0,0,0,0,0,0],"id":8,"left_children":[1,-1,3,5,-1,7,9,-1,-1,11,13,-1,-1,-1,-1],"loss_changes":[2.1115867E3,0E0,4.1532776E1,1.1207521E0,0E0,1.0992454E0,1.2752051E0,0E0,0E0,1.9895061E0,1.7261599E0,0E0,0E0,0E0,0E0],"parents":[2147483647,0,0,2,2,3,3,5,5,6,6,9,9,10,10],"right_children":[2,-1,4,6,-1,8,10,-1,-1,12,14,-1,-1,-1,-1],"split_conditions":[5.99E2,-3.1144327E-1,6.01E2,2.3E1,3.133456E-1,5.6E1,1.47E2,3.462066E-2,-2.9202053E-1,1.33E2,1E0,1.739716E-2,-2.0273273E-1,-1.0269795E-1,1.9711833E-1],"split_indices":[3,0,3,0,0,4,4,0,0,4,9,0,0,0,0],"split_type":[0,0,0,0,0,0,0,0,0,0,0,0,0,0,0],"sum_hessian":[2.0242888E3,1.0112653E3,1.01302344E3,3.991442E1,9.73109E2,2.4752061E0,3.7439217E1,1.2763833E0,1.1988227E0,3.0415478E1,7.0237374E0,2.7158466E1,3.2570112E0,1.6606406E0,5.3630967E0],"tree_param":{"num_deleted":"0","num_feature":"17","num_nodes":"15","size_leaf_vector":"1"}},{"base_weights":[-1.6499475E-2,-9.766445E-1,3.0956596E-1,-3.081987E-1,-5.6734295E-3,-2.5187707E-1,8.805747E-2,2.1038422E-1,-8.45052E-1,2.4227595E-1,-3.1595132E-1,-1.8945189E-1,1.635977E-1,-5.2347228E-2,-3.1868747E-1,3.4536567E-2,3.0974466E-1,1.5166348E-1,-2.0563273E-1],"categories":[],"categories_nodes":[],"categories_segments":[],"categories_sizes":[],"default_left":[0,0,0,0,0,0,0,0,0,0,0,0,0,0,0,0,0,0,0],"id":9,"left_children":[1,3,-1,-1,5,7,9,11,13,15,17,-1,-1,-1,-1,-1,-1,-1,-1],"loss_changes":[1.5357097E3,3.9183716E1,0E0,0E0,9.5705247E-1,3.311718E0,1.9508208E0,2.3814685E0,5.728862E-1,2.125549E0,3.000814E0,0E0,0E0,0E0,0E0,0E0,0E0,0E0,0E0],"parents":[2147483647,0,0,1,1,4,4,5,5,6,6,7,7,8,8,9,9,10,10],"right_children":[2,4,-1,-1,6,8,10,12,14,16,18,-1,-1,-1,-1,-1,-1,-1,-1],"split_conditions":[6.01E2,5.99E2,3.0956596E-1,-3.081987E-1,1.12E-1,1.03E-1,3E0,4.201E3,4E1,2.07E-1,2.02E0,-1.8945189E-1,1.635977E-1,-5.2347228E-2,-3.1868747E-1,3.4536567E-2,3.0974466E-1,1.5166348E-1,-2.0563273E-1],"split_indices":[3,3,0,0,11,11,9,10,0,11,16,0,0,0,0,0,0,0,0],"split_type":[0,0,0,0,0,0,0,0,0,0,0,0,0,0,0,0,0,0,0],"sum_hessian":[1.5236354E3,7.953224E2,7.283129E2,7.5581116E2,3.951122E1,1.0429291E1,2.9081928E1,6.2241416E0,4.2051487E0,2.1337345E1,7.744584E0,1.5194676E0,4.7046742E0,1.470211E0,2.7349377E0,1.9366688E1,1.9706569E0,2.2884383E0,5.456146E0],"tree_param":{"num_deleted":"0","num_feature":"17","num_nodes":"19","size_leaf_vector":"1"}},{"base_weights":[-1.6374832E-2,-9.5405185E-1,3.067668E-1,-3.0578128E-1,-5.899142E-3,1.9019748E-1,-4.960571E-2,4.353313E-2,-4.609205E-1,1.0734493E-1,-5.3741466E-2,1.8681714E-1,-2.3697065E-1],"categories":[],"categories_nodes":[],"categories_segments":[],"categories_sizes":[],"default_left":[0,0,0,0,0,0,0,0,0,0,0,0,0],"id":10,"left_children":[1,3,-1,-1,5,-1,7,9,11,-1,-1,-1,-1],"loss_changes":[1.1185569E3,3.731305E1,0E0,0E0,1.1458449E0,0E0,1.48448E0,2.309252E0,3.03875E0,0E0,0E0,0E0,0E0],"parents":[2147483647,0,0,1,1,4,4,6,6,7,7,8,8],"right_children":[2,4,-1,-1,6,-1,8,10,12,-1,-1,-1,-1],"split_conditions":[6.01E2,5.99E2,3.067668E-1,-3.0578128E-1,9E1,1.9019748E-1,2.0034E4,8.9E1,4.68E0,1.0734493E-1,-5.3741466E-2,1.8681714E-1,-2.3697065E-1],"split_indices":[3,3,0,0,13,0,10,4,14,0,0,0,0],"split_type":[0,0,0,0,0,0,0,0,0,0,0,0,0],"sum_hessian":[1.1462002E3,6.025007E2,5.436995E2,5.636545E2,3.8846184E1,1.6201766E0,3.722601E1,3.1081924E1,6.144084E0,1.263777E1,1.8444155E1,1.2229342E0,4.9211497E0],"tree_param":{"num_deleted":"0","num_feature":"17","num_nodes":"13","size_leaf_vector":"1"}},{"base_weights":[-1.5906265E-2,-3.0393362E-1,9.2782545E-1,1.0043444E-3,3.046424E-1,-7.40978E-2,3.0595955E-1,1.1906745E-2,-5.136112E-1,6.883473E-3,2.7334324E-1,9.071857E-2,-7.512616E-2,-2.8449163E-1,1.3224538E-1,1.4296912E-1,-1.9774108E-1],"categories":[],"categories_nodes":[],"categories_segments":[],"categories_sizes":[],"default_left":[0,0,0,0,0,0,0,0,0,0,0,0,0,0,0,0,0],"id":11,"left_children":[1,-1,3,5,-1,7,9,11,13,15,-1,-1,-1,-1,-1,-1,-1],"loss_changes":[8.143077E2,0E0,3.6113464E1,9.252953E-1,0E0,1.2319068E0,1.4386013E0,2.2169147E0,2.629264E0,2.300579E0,0E0,0E0,0E0,0E0,0E0,0E0,0E0],"parents":[2147483647,0,0,2,2,3,3,5,5,6,6,7,7,8,8,9,9],"right_children":[2,-1,4,6,-1,8,10,12,14,16,-1,-1,-1,-1,-1,-1,-1],"split_conditions":[5.99E2,-3.0393362E-1,6.01E2,1.47E2,3.046424E-1,1.3E2,1.5569E4,4E0,1.56E-1,1.02619E5,2.7334324E-1,9.071857E-2,-7.512616E-2,-2.8449163E-1,1.3224538E-1,1.4296912E-1,-1.9774108E-1],"split_indices":[3,0,3,4,0,4,10,8,11,2,0,0,0,0,0,0,0],"split_type":[0,0,0,0,0,0,0,0,0,0,0,0,0,0,0,0,0],"sum_hessian":[8.632783E2,4.197115E2,4.4356683E2,3.8411106E1,4.051557E2,3.1428217E1,6.982891E0,2.7098463E1,4.3297534E0,5.3502336E0,1.6326574E0,1.2786536E1,1.4311928E1,2.9792645E0,1.3504887E0,3.3044107E0,2.0458229E0],"tree_param":{"num_deleted":"0","num_feature":"17","num_nodes":"17","size_leaf_vector":"1"}},{"base_weights":[-1.5479708E-2,-3.024682E-1,8.981699E-1,3.464758E-3,3.02973E-1,-2.3918426E-1,8.698574E-2,2.8810313E-1,-5.294518E-1,4.8070583E-1,-4.3853156E-2,-9.7062424E-2,1.7559177E-1,-2.1924014E-1,5.8285225E-2,1.9495192E-1,-7.980986E-2,-1.0555742E-1,2.8754665E-2],"categories":[],"categories_nodes":[],"categories_segments":[],"categories_sizes":[],"default_left":[0,0,0,0,0,0,0,0,0,0,0,0,0,0,0,0,0,0,0],"id":12,"left_children":[1,-1,3,5,-1,7,9,11,13,15,17,-1,-1,-1,-1,-1,-1,-1,-1],"loss_changes":[5.9277893E2,0E0,3.4021667E1,8.0692184E-1,0E0,1.7135872E0,1.545379E0,9.653645E-1,1.1519195E0,1.1155907E0,1.0288076E0,0E0,0E0,0E0,0E0,0E0,0E0,0E0,0E0],"parents":[2147483647,0,0,2,2,3,3,5,5,6,6,7,7,8,8,9,9,10,10],"right_children":[2,-1,4,6,-1,8,10,12,14,16,18,-1,-1,-1,-1,-1,-1,-1,-1],"split_conditions":[5.99E2,-3.024682E-1,6.01E2,6.4661E4,3.02973E-1,2.02E0,8.9561E4,2.8E5,1.44E2,5.8E1,1.06685E5,-9.7062424E-2,1.7559177E-1,-2.1924014E-1,5.8285225E-2,1.9495192E-1,-7.980986E-2,-1.0555742E-1,2.8754665E-2],"split_indices":[3,0,3,2,0,16,2,5,4,0,2,0,0,0,0,0,0,0,0],"split_type":[0,0,0,0,0,0,0,0,0,0,0,0,0,0,0,0,0,0,0],"sum_hessian":[6.515448E2,3.122062E2,3.3933856E2,3.7789364E1,3.015492E2,9.199317E0,2.8590046E1,3.2688048E0,5.9305124E0,6.46414E0,2.2125906E1,1.0399538E0,2.2288508E0,4.632074E0,1.2984382E0,5.3762093E0,1.0879308E0,6.4302735E0,1.5695632E1],"tree_param":{"num_deleted":"0","num_feature":"17","num_nodes":"19","size_leaf_vector":"1"}},{"base_weights":[-1.5224345E-2,-3.01242E-1,8.628487E-1,1.7094602E-3,3.015932E-1,6.480307E-2,-2.5342017E-1,3.5325357E-1,-8.2862176E-2,-5.9668374E-1,2.3660079E-1,-1.9250376E-2,3.370055E-1,-1.2664194E-1,2.71745E-2,-2.6959312E-1,2.0360276E-2,2.0356762E-1,-1.1225956E-1],"categories":[],"categories_nodes":[],"categories_segments":[],"categories_sizes":[],"default_left":[0,0,0,0,0,0,0,0,0,0,0,0,0,0,0,0,0,0,0],"id":13,"left_children":[1,-1,3,5,-1,7,9,11,13,15,17,-1,-1,-1,-1,-1,-1,-1,-1],"loss_changes":[4.303623E2,0E0,3.220523E1,6.324227E-1,0E0,1.3700039E0,1.4516636E0,3.5591793E0,1.3110163E0,1.0373352E0,1.3135872E0,0E0,0E0,0E0,0E0,0E0,0E0,0E0,0E0],"parents":[2147483647,0,0,2,2,3,3,5,5,6,6,7,7,8,8,9,9,10,10],"right_children":[2,-1,4,6,-1,8,10,12,14,16,18,-1,-1,-1,-1,-1,-1,-1,-1],"split_conditions":[5.99E2,-3.01242E-1,6.01E2,8.3E5,3.015932E-1,6E1,9.8E5,6.31E5,1.12E-1,1.13E2,2.1035E4,-1.9250376E-2,3.370055E-1,-1.2664194E-1,2.71745E-2,-2.6959312E-1,2.0360276E-2,2.0356762E-1,-1.1225956E-1],"split_indices":[3,0,3,5,0,6,5,5,11,4,10,0,0,0,0,0,0,0,0],"split_type":[0,0,0,0,0,0,0,0,0,0,0,0,0,0,0,0,0,0,0],"sum_hessian":[4.9361716E2,2.3208812E2,2.6152905E2,3.72679E1,2.2426115E2,3.0476944E1,6.7909546E0,9.8478365E0,2.0629107E1,3.8654833E0,2.925471E0,6.9807105E0,2.8671265E0,6.49338E0,1.4135726E1,2.4156153E0,1.4498678E0,1.6329657E0,1.2925055E0],"tree_param":{"num_deleted":"0","num_feature":"17","num_nodes":"19","size_leaf_vector":"1"}},{"base_weights":[-1.4521254E-2,-3.001391E-1,8.225653E-1,4.334857E-3,3.0037135E-1,-1.24420516E-1,4.0989768E-2,-1.6573402E-1,1.6285293E-1,8.7305345E-2,-1.2494839E-1,2.05725E-1,4.883517E-3],"categories":[],"categories_nodes":[],"categories_segments":[],"categories_sizes":[],"default_left":[0,0,0,0,0,0,0,0,0,0,0,0,0],"id":14,"left_children":[1,-1,3,5,-1,-1,7,9,11,-1,-1,-1,-1],"loss_changes":[3.1181464E2,0E0,2.986914E1,5.94997E-1,0E0,0E0,9.215896E-1,1.6864104E0,1.7397976E0,0E0,0E0,0E0,0E0],"parents":[2147483647,0,0,2,2,3,3,6,6,7,7,8,8],"right_children":[2,-1,4,6,-1,-1,8,10,12,-1,-1,-1,-1],"split_conditions":[5.99E2,-3.001391E-1,6.01E2,2.3E1,3.0037135E-1,-1.24420516E-1,5.26E0,4.57E0,6.06E0,8.7305345E-2,-1.2494839E-1,2.05725E-1,4.883517E-3],"split_indices":[3,0,3,0,0,0,14,14,14,0,0,0,0],"split_type":[0,0,0,0,0,0,0,0,0,0,0,0,0],"sum_hessian":[3.7581384E2,1.7247414E2,2.0333972E2,3.6627644E1,1.6671207E2,2.116415E0,3.451123E1,1.2665678E1,2.1845552E1,4.4321423E0,8.233536E0,3.9775045E0,1.7868048E1],"tree_param":{"num_deleted":"0","num_feature":"17","num_nodes":"13","size_leaf_vector":"1"}},{"base_weights":[-1.3804154E-2,-2.990587E-1,7.739515E-1,4.886927E-3,2.9919487E-1,1.4405674E-1,-2.893358E-2,4.1566677E-2,-3.5090095E-1,-5.713615E-3,1.998014E-1,-2.7132365E-1,5.472081E-2],"categories":[],"categories_nodes":[],"categories_segments":[],"categories_sizes":[],"default_left":[0,0,0,0,0,0,0,0,0,0,0,0,0],"id":15,"left_children":[1,-1,3,5,-1,-1,7,9,11,-1,-1,-1,-1],"loss_changes":[2.248674E2,0E0,2.7687866E1,6.132961E-1,0E0,0E0,8.261609E-1,1.1566764E0,2.092125E0,0E0,0E0,0E0,0E0],"parents":[2147483647,0,0,2,2,3,3,6,6,7,7,8,8],"right_children":[2,-1,4,6,-1,-1,8,10,12,-1,-1,-1,-1],"split_conditions":[5.99E2,-2.990587E-1,6.01E2,9E1,2.9919487E-1,1.4405674E-1,2.0034E4,1.807E4,2.4486E4,-5.713615E-3,1.998014E-1,-2.7132365E-1,5.472081E-2],"split_indices":[3,0,3,13,0,0,10,10,10,0,0,0,0],"split_type":[0,0,0,0,0,0,0,0,0,0,0,0,0],"sum_hessian":[2.8837643E2,1.2816765E2,1.6020877E2,3.628796E1,1.23920815E2,1.5338318E0,3.4754128E1,2.9225584E1,5.528543E0,2.7523474E1,1.7021096E0,2.3714101E0,3.1571329E0],"tree_param":{"num_deleted":"0","num_feature":"17","num_nodes":"13","size_leaf_vector":"1"}},{"base_weights":[-1.27381E-2,-2.9790512E-1,7.1866184E-1,6.4827716E-3,2.9795906E-1,1.2352088E-1,-9.828838E-2,-2.7192768E-1,3.265307E-1,1.2045022E-1,-4.1610077E-1,3.0503662E-2,-2.5531372E-1,-1.2424701E-1,1.4531483E-1,-8.6889334E-2,1.2713338E-1,4.72174E-2,-2.77539E-1],"categories":[],"categories_nodes":[],"categories_segments":[],"categories_sizes":[],"default_left":[0,0,0,0,0,0,0,0,0,0,0,0,0,0,0,0,0,0,0],"id":16,"left_children":[1,-1,3,5,-1,7,9,11,13,15,17,-1,-1,-1,-1,-1,-1,-1,-1],"loss_changes":[1.615355E2,0E0,2.5223236E1,4.647342E-1,0E0,1.5239809E0,1.4427218E0,1.5166833E0,1.6348931E0,1.695158E0,2.595192E0,0E0,0E0,0E0,0E0,0E0,0E0,0E0,0E0],"parents":[2147483647,0,0,2,2,3,3,5,5,6,6,7,7,8,8,9,9,10,10],"right_children":[2,-1,4,6,-1,8,10,12,14,16,18,-1,-1,-1,-1,-1,-1,-1,-1],"split_conditions":[5.99E2,-2.9790512E-1,6.01E2,2.59E0,2.9795906E-1,6.7E1,1.47E-1,5.2E1,3.58E0,3.6E1,4E1,3.0503662E-2,-2.5531372E-1,-1.2424701E-1,1.4531483E-1,-8.6889334E-2,1.2713338E-1,4.72174E-2,-2.77539E-1],"split_indices":[3,0,3,16,0,4,11,0,15,0,0,0,0,0,0,0,0,0,0],"split_type":[0,0,0,0,0,0,0,0,0,0,0,0,0,0,0,0,0,0,0],"sum_hessian":[2.2330577E2,9.5265656E1,1.2804012E2,3.59096E1,9.2130516E1,1.6877295E1,1.9032305E1,5.609978E0,1.1267316E1,1.1641138E1,7.3911657E0,3.9111814E0,1.698797E0,1.6941544E0,9.573162E0,4.9687853E0,6.6723533E0,3.8003478E0,3.5908182E0],"tree_param":{"num_deleted":"0","num_feature":"17","num_nodes":"19","size_leaf_vector":"1"}},{"base_weights":[-1.4340365E-2,-6.650117E-1,2.9655838E-1,-2.9658014E-1,-6.18567E-3,-1.9183938E-1,8.721323E-2,1.3928062E-1,-3.3331394E-1,2.0590372E-1,-3.143711E-1,-1.5499282E-1,1.2088418E-1,9.1905065E-2,-1.12904936E-1,8.167519E-2,-2.5596341E-1],"categories":[],"categories_nodes":[],"categories_segments":[],"categories_sizes":[],"default_left":[0,0,0,0,0,0,0,0,0,0,0,0,0,0,0,0,0],"id":17,"left_children":[1,3,-1,-1,5,7,9,-1,11,13,15,-1,-1,-1,-1,-1,-1],"loss_changes":[1.1529341E2,2.2836128E1,0E0,0E0,6.4613384E-1,1.3114556E0,1.248546E0,0E0,1.6704184E0,1.2718319E0,2.1483736E0,0E0,0E0,0E0,0E0,0E0,0E0],"parents":[2147483647,0,0,1,1,4,4,5,5,6,6,8,8,9,9,10,10],"right_children":[2,4,-1,-1,6,8,10,-1,12,14,16,-1,-1,-1,-1,-1,-1],"split_conditions":[6.01E2,5.99E2,2.9655838E-1,-2.9658014E-1,1.17E-1,3.9E1,6E1,1.3928062E-1,5.4E1,1.37655E5,5.27E5,-1.5499282E-1,1.2088418E-1,9.1905065E-2,-1.12904936E-1,8.167519E-2,-2.5596341E-1],"split_indices":[3,3,0,0,11,4,0,0,0,2,5,0,0,0,0,0,0],"split_type":[0,0,0,0,0,0,0,0,0,0,0,0,0,0,0,0,0],"sum_hessian":[1.7467726E2,1.0614571E2,6.853155E1,7.0847664E1,3.5298058E1,1.1461492E1,2.3836563E1,1.6283149E0,9.833177E0,1.877483E1,5.061734E0,8.111665E0,1.7215122E0,1.6416601E1,2.358228E0,2.6602902E0,2.4014437E0],"tree_param":{"num_deleted":"0","num_feature":"17","num_nodes":"17","size_leaf_vector":"1"}},{"base_weights":[-1.3934384E-2,-5.997338E-1,2.9487875E-1,-2.9497597E-1,-6.7720176E-3,-2.449332E-1,5.7717204E-2,1.6665402E-1,-4.5436734E-1,5.418184E-1,-2.1790221E-2,8.542312E-2,-2.0255719E-1,2.8765628E-1,-6.404655E-2,-1.1944491E-1,2.4692012E-2],"categories":[],"categories_nodes":[],"categories_segments":[],"categories_sizes":[],"default_left":[0,0,0,0,0,0,0,0,0,0,0,0,0,0,0,0,0],"id":18,"left_children":[1,3,-1,-1,5,7,9,-1,11,13,15,-1,-1,-1,-1,-1,-1],"loss_changes":[8.206387E1,2.0119284E1,0E0,0E0,5.634577E-1,1.5619733E0,1.1262376E0,0E0,1.2926018E0,1.5034615E0,1.0447696E0,0E0,0E0,0E0,0E0,0E0,0E0],"parents":[2147483647,0,0,1,1,4,4,5,5,6,6,8,8,9,9,10,10],"right_children":[2,4,-1,-1,6,8,10,-1,12,14,16,-1,-1,-1,-1,-1,-1],"split_conditions":[6.01E2,5.99E2,2.9487875E-1,-2.9497597E-1,5.11E3,9.057E1,1.02E-1,1.6665402E-1,1.54E0,1.19E2,1.16E-1,8.542312E-2,-2.0255719E-1,2.8765628E-1,-6.404655E-2,-1.1944491E-1,2.4692012E-2],"split_indices":[3,3,0,0,10,13,11,0,16,4,11,0,0,0,0,0,0],"split_type":[0,0,0,0,0,0,0,0,0,0,0,0,0,0,0,0,0],"sum_hessian":[1.3851997E2,8.749977E1,5.102021E1,5.273397E1,3.47658E1,6.811738E0,2.795406E1,1.0699593E0,5.741779E0,3.1231685E0,2.4830893E1,1.2542503E0,4.487529E0,1.8385435E0,1.2846249E0,4.7678976E0,2.0062994E1],"tree_param":{"num_deleted":"0","num_feature":"17","num_nodes":"17","size_leaf_vector":"1"}},{"base_weights":[-1.1037612E-2,-2.9296964E-1,5.20151E-1,4.883356E-4,2.9279226E-1,-6.5509066E-2,2.6158977E-1,9.202876E-2,-2.2364098E-1,4.847064E-1,-2.0509744E-1,-5.2140173E-2,2.8759432E-1,-2.5565132E-1,-1.1572341E-3,-2.7430305E-2,2.130808E-1,8.684933E-2,-1.7564362E-1],"categories":[],"categories_nodes":[],"categories_segments":[],"categories_sizes":[],"default_left":[0,0,0,0,0,0,0,0,0,0,0,0,0,0,0,0,0,0,0],"id":19,"left_children":[1,-1,3,5,-1,7,9,11,13,15,17,-1,-1,-1,-1,-1,-1,-1,-1],"loss_changes":[5.8245716E1,0E0,1.7356491E1,6.243983E-1,0E0,7.412724E-1,8.6063E-1,3.6684093E0,2.031411E0,7.463409E-1,7.465552E-1,0E0,0E0,0E0,0E0,0E0,0E0,0E0,0E0],"parents":[2147483647,0,0,2,2,3,3,5,5,6,6,7,7,8,8,9,9,10,10],"right_children":[2,-1,4,6,-1,8,10,12,14,16,18,-1,-1,-1,-1,-1,-1,-1,-1],"split_conditions":[5.99E2,-2.9296964E-1,6.01E2,1.47E2,2.9279226E-1,1.2663E4,5.3E1,9.964E3,1.3992E4,2E0,8.4E1,-5.2140173E-2,2.8759432E-1,-2.5565132E-1,-1.1572341E-3,-2.7430305E-2,2.130808E-1,8.684933E-2,-1.7564362E-1],"split_indices":[3,0,3,4,0,10,0,10,10,8,6,0,0,0,0,0,0,0,0],"split_type":[0,0,0,0,0,0,0,0,0,0,0,0,0,0,0,0,0,0,0],"sum_hessian":[1.1157614E2,3.9301098E1,7.227504E1,3.4240322E1,3.803472E1,2.7929752E1,6.3105693E0,1.4200563E1,1.3729189E1,4.2432976E0,2.067272E0,1.1478931E1,2.7216325E0,2.8115337E0,1.0917655E1,1.3611751E0,2.8821225E0,1.0025814E0,1.0646906E0],"tree_param":{"num_deleted":"0","num_feature":"17","num_nodes":"19","size_leaf_vector":"1"}},{"base_weights":[-8.331444E-3,-2.904185E-1,4.544778E-1,4.7936E-3,2.9015046E-1,5.709119E-2,-2.1237858E-1,2.9261997E-1,-6.678508E-2,-5.7185596E-1,1.0080552E-1,1.4072503E-1,-1.6339779E-1,-5.7327293E-2,1.4124812E-1,-2.1991731E-1,-3.1238006E-2,1.778449E-1,-1.6724977E-1],"categories":[],"categories_nodes":[],"categories_segments":[],"categories_sizes":[],"default_left":[0,0,0,0,0,0,0,0,0,0,0,0,0,0,0,0,0,0,0],"id":20,"left_children":[1,-1,3,5,-1,7,9,11,13,15,17,-1,-1,-1,-1,-1,-1,-1,-1],"loss_changes":[4.142753E1,0E0,1.4505448E1,4.043454E-1,0E0,8.545648E-1,8.360473E-1,1.7404001E0,1.3977716E0,1.7768502E-1,1.8026134E0,0E0,0E0,0E0,0E0,0E0,0E0,0E0,0E0],"parents":[2147483647,0,0,2,2,3,3,5,5,6,6,7,7,8,8,9,9,10,10],"right_children":[2,-1,4,6,-1,8,10,12,14,16,18,-1,-1,-1,-1,-1,-1,-1,-1],"split_conditions":[5.99E2,-2.904185E-1,6.01E2,8.3E5,2.9015046E-1,7.5E1,6.6E1,1.7E-1,1.7955E4,3E0,3.33E0,1.4072503E-1,-1.6339779E-1,-5.7327293E-2,1.4124812E-1,-2.1991731E-1,-3.1238006E-2,1.778449E-1,-1.6724977E-1],"split_indices":[3,0,3,5,0,4,4,11,10,9,16,0,0,0,0,0,0,0,0],"split_type":[0,0,0,0,0,0,0,0,0,0,0,0,0,0,0,0,0,0,0],"sum_hessian":[9.127858E1,2.9341413E1,6.193717E1,3.35338E1,2.8403372E1,2.7619755E1,5.9140434E0,9.050203E0,1.8569551E1,2.3689663E0,3.5450773E0,7.838027E0,1.2121756E0,1.5605765E1,2.9637864E0,1.3399031E0,1.0290631E0,2.0857143E0,1.459363E0],"tree_param":{"num_deleted":"0","num_feature":"17","num_nodes":"19","size_leaf_vector":"1"}},{"base_weights":[-9.450205E-3,-2.871588E-1,3.8542727E-1,-1.0767893E-3,2.8678647E-1,-6.135283E-2,2.3756652E-1,1.8048227E-2,-3.7129512E-1,-5.392037E-2,4.162011E-1,3.7722964E-2,-1.4973746E-1,-1.9670148E-1,3.171008E-2,2.149815E-1,9.6907397E-4],"categories":[],"categories_nodes":[],"categories_segments":[],"categories_sizes":[],"default_left":[0,0,0,0,0,0,0,0,0,0,0,0,0,0,0,0,0],"id":21,"left_children":[1,-1,3,5,-1,7,9,11,13,-1,15,-1,-1,-1,-1,-1,-1],"loss_changes":[2.9216368E1,0E0,1.2156588E1,5.016468E-1,0E0,6.9153476E-1,5.990903E-1,1.3497123E0,8.453947E-1,0E0,6.4608115E-1,0E0,0E0,0E0,0E0,0E0,0E0],"parents":[2147483647,0,0,2,2,3,3,5,5,6,6,7,7,8,8,10,10],"right_children":[2,-1,4,6,-1,8,10,12,14,-1,16,-1,-1,-1,-1,-1,-1],"split_conditions":[5.99E2,-2.871588E-1,6.01E2,1.47E2,2.8678647E-1,2.1035E4,3.89E0,1.3E2,1E0,-5.392037E-2,1E0,3.7722964E-2,-1.4973746E-1,-1.9670148E-1,3.171008E-2,2.149815E-1,9.6907397E-4],"split_indices":[3,0,3,4,0,10,15,4,1,0,1,0,0,0,0,0,0],"split_type":[0,0,0,0,0,0,0,0,0,0,0,0,0,0,0,0,0],"sum_hessian":[7.608202E1,2.1957582E1,5.4124443E1,3.2860916E1,2.1263525E1,2.6827734E1,6.033184E0,2.2106306E1,4.721427E0,1.8066304E0,4.226554E0,1.892274E1,3.1835656E0,2.723272E0,1.9981549E0,2.0211112E0,2.2054427E0],"tree_param":{"num_deleted":"0","num_feature":"17","num_nodes":"17","size_leaf_vector":"1"}},{"base_weights":[-9.901348E-3,-2.830082E-1,3.2105607E-1,-4.1648876E-3,2.8251445E-1,1.1034458E-1,-1.0546503E-1,-2.4034345E-1,2.8915742E-1,1.6013281E-1,-3.1291252E-1,6.002711E-2,-1.7654833E-1,7.1548475E-3,2.0108551E-1,-1.0424125E-2,2.274232E-1,1.9503465E-2,-1.8842883E-1],"categories":[],"categories_nodes":[],"categories_segments":[],"categories_sizes":[],"default_left":[0,0,0,0,0,0,0,0,0,0,0,0,0,0,0,0,0,0,0],"id":22,"left_children":[1,-1,3,5,-1,7,9,11,13,15,17,-1,-1,-1,-1,-1,-1,-1,-1],"loss_changes":[2.0638382E1,0E0,9.963505E0,3.987453E-1,0E0,1.0824311E0,1.0539062E0,1.0379423E0,1.1116849E0,1.0344169E0,1.299595E0,0E0,0E0,0E0,0E0,0E0,0E0,0E0,0E0],"parents":[2147483647,0,0,2,2,3,3,5,5,6,6,7,7,8,8,9,9,10,10],"right_children":[2,-1,4,6,-1,8,10,12,14,16,18,-1,-1,-1,-1,-1,-1,-1,-1],"split_conditions":[5.99E2,-2.830082E-1,6.01E2,2.59E0,2.8251445E-1,6.7E1,1.33E-1,4E0,1.56E-1,1.29E-1,1E0,6.002711E-2,-1.7654833E-1,7.1548475E-3,2.0108551E-1,-1.0424125E-2,2.274232E-1,1.9503465E-2,-1.8842883E-1],"split_indices":[3,0,3,16,0,4,11,8,11,11,1,0,0,0,0,0,0,0,0],"split_type":[0,0,0,0,0,0,0,0,0,0,0,0,0,0,0,0,0,0,0],"sum_hessian":[6.48245E1,1.648329E1,4.8341213E1,3.2371864E1,1.5969348E1,1.515331E1,1.7218554E1,5.0010786E0,1.0152231E1,7.6509805E0,9.567574E0,2.3956726E0,2.605406E0,6.6120634E0,3.540168E0,6.480703E0,1.1702778E0,4.711698E0,4.855875E0],"tree_param":{"num_deleted":"0","num_feature":"17","num_nodes":"19","size_leaf_vector":"1"}},{"base_weights":[-5.6028883E-3,-2.7777582E-1,2.696654E-1,1.7782466E-3,2.7714345E-1,-2.248377E-1,7.186055E-2,-3.9339527E-1,7.3823586E-2,3.6826897E-1,-4.030176E-2,-2.1678449E-1,-4.362585E-2,1.9490431E-1,2.0629693E-2,-1.004467E-1,2.7171262E-2],"categories":[],"categories_nodes":[],"categories_segments":[],"categories_sizes":[],"default_left":[0,0,0,0,0,0,0,0,0,0,0,0,0,0,0,0,0],"id":23,"left_children":[1,-1,3,5,-1,7,9,11,-1,13,15,-1,-1,-1,-1,-1,-1],"loss_changes":[1.4772165E1,0E0,7.866763E0,5.379955E-1,0E0,7.3209083E-1,8.743896E-1,4.074965E-1,0E0,5.61852E-1,7.8803766E-1,0E0,0E0,0E0,0E0,0E0,0E0],"parents":[2147483647,0,0,2,2,3,3,5,5,6,6,7,7,9,9,10,10],"right_children":[2,-1,4,6,-1,8,10,12,-1,14,16,-1,-1,-1,-1,-1,-1],"split_conditions":[5.99E2,-2.7777582E-1,6.01E2,5.8565E4,2.7714345E-1,1.36E2,8.9561E4,4.47E0,7.3823586E-2,9.105E1,4.07E0,-2.1678449E-1,-4.362585E-2,1.9490431E-1,2.0629693E-2,-1.004467E-1,2.7171262E-2],"split_indices":[3,0,3,2,0,4,2,15,0,13,15,0,0,0,0,0,0],"split_type":[0,0,0,0,0,0,0,0,0,0,0,0,0,0,0,0,0],"sum_hessian":[5.6325436E1,1.2424006E1,4.390143E1,3.1857714E1,1.2043714E1,7.0034337E0,2.485428E1,5.27864E0,1.7247939E0,6.196251E0,1.865803E1,1.4454994E0,3.8331404E0,2.5918064E0,3.6044447E0,5.2607226E0,1.3397307E1],"tree_param":{"num_deleted":"0","num_feature":"17","num_nodes":"17","size_leaf_vector":"1"}},{"base_weights":[-5.5318344E-3,-2.7128094E-1,2.1918444E-1,-2.370129E-5,2.7049258E-1,-1.802506E-1,6.447186E-2,1.1875759E-1,-5.7486534E-1,3.6614242E-1,-3.187113E-2,1.3398953E-1,-5.4430623E-2,-3.4677736E-2,-2.0830141E-1,-1.255997E-3,2.1803902E-1,1.5182345E-1,-2.7041422E-2],"categories":[],"categories_nodes":[],"categories_segments":[],"categories_sizes":[],"default_left":[0,0,0,0,0,0,0,0,0,0,0,0,0,0,0,0,0,0,0],"id":24,"left_children":[1,-1,3,5,-1,7,9,11,13,15,17,-1,-1,-1,-1,-1,-1,-1,-1],"loss_changes":[1.051493E1,0E0,6.2338567E0,3.898531E-1,0E0,1.1112165E0,7.295548E-1,6.5756106E-1,1.3821065E-1,8.122899E-1,6.61266E-1,0E0,0E0,0E0,0E0,0E0,0E0,0E0,0E0],"parents":[2147483647,0,0,2,2,3,3,5,5,6,6,7,7,8,8,9,9,10,10],"right_children":[2,-1,4,6,-1,8,10,12,14,16,18,-1,-1,-1,-1,-1,-1,-1,-1],"split_conditions":[5.99E2,-2.7128094E-1,6.01E2,4E5,2.7049258E-1,9.211E1,8.9561E4,8.1E1,4.8E1,5.26E0,7.24E3,1.3398953E-1,-5.4430623E-2,-3.4677736E-2,-2.0830141E-1,-1.255997E-3,2.1803902E-1,1.5182345E-1,-2.7041422E-2],"split_indices":[3,0,3,5,0,13,2,4,6,14,10,0,0,0,0,0,0,0,0],"split_type":[0,0,0,0,0,0,0,0,0,0,0,0,0,0,0,0,0,0,0],"sum_hessian":[5.0082756E1,9.4128065E0,4.0669952E1,3.1539349E1,9.130603E0,7.839055E0,2.3700293E1,4.8574862E0,2.9815688E0,5.0590177E0,1.8641275E1,2.088542E0,2.7689445E0,1.0216599E0,1.959909E0,2.9836845E0,2.0753329E0,1.0706836E0,1.7570591E1],"tree_param":{"num_deleted":"0","num_feature":"17","num_nodes":"19","size_leaf_vector":"1"}},{"base_weights":[-3.9850213E-4,-2.6338178E-1,1.8321829E-1,5.902082E-3,2.6243386E-1,-9.929548E-2,3.7841972E-2,3.1397974E-1,-2.3711883E-2,-9.896548E-2,1.6243398E-1,1.2755935E-1,-2.9215338E-2],"categories":[],"categories_nodes":[],"categories_segments":[],"categories_sizes":[],"default_left":[0,0,0,0,0,0,0,0,0,0,0,0,0],"id":25,"left_children":[1,-1,3,5,-1,-1,7,9,11,-1,-1,-1,-1],"loss_changes":[7.6150336E0,0E0,4.7875185E0,3.580843E-1,0E0,0E0,5.212929E-1,9.959503E-1,8.897256E-1,0E0,0E0,0E0,0E0],"parents":[2147483647,0,0,2,2,3,3,6,6,7,7,8,8],"right_children":[2,-1,4,6,-1,-1,8,10,12,-1,-1,-1,-1],"split_conditions":[5.99E2,-2.6338178E-1,6.01E2,2.3E1,2.6243386E-1,-9.929548E-2,2.8E1,4.64E0,4.57E0,-9.896548E-2,1.6243398E-1,1.2755935E-1,-2.9215338E-2],"split_indices":[3,0,3,0,0,0,0,14,14,0,0,0,0],"split_type":[0,0,0,0,0,0,0,0,0,0,0,0,0],"sum_hessian":[4.5261547E1,7.1774993E0,3.808405E1,3.1114761E1,6.9692864E0,1.8836942E0,2.9231068E1,4.5806856E0,2.4650383E1,1.0782759E0,3.5024095E0,2.8024902E0,2.1847893E1],"tree_param":{"num_deleted":"0","num_feature":"17","num_nodes":"13","size_leaf_vector":"1"}},{"base_weights":[1.3295534E-3,-2.5401112E-1,1.4954618E-1,6.633531E-3,2.5289756E-1,1.1799855E-1,-2.3266025E-2,-3.5263225E-1,3.8258232E-2,4.972763E-2,-2.0986456E-1,-1.4190918E-1,2.371821E-2],"categories":[],"categories_nodes":[],"categories_segments":[],"categories_sizes":[],"default_left":[0,0,0,0,0,0,0,0,0,0,0,0,0],"id":26,"left_children":[1,-1,3,5,-1,-1,7,9,11,-1,-1,-1,-1],"loss_changes":[5.5050273E0,0E0,3.6883376E0,3.7812608E-1,0E0,0E0,6.328898E-1,9.98761E-1,5.935238E-1,0E0,0E0,0E0,0E0],"parents":[2147483647,0,0,2,2,3,3,6,6,7,7,8,8],"right_children":[2,-1,4,6,-1,-1,8,10,12,-1,-1,-1,-1],"split_conditions":[5.99E2,-2.5401112E-1,6.01E2,9E1,2.5289756E-1,1.1799855E-1,9.009E1,4.1E1,2.6383E4,4.972763E-2,-2.0986456E-1,-1.4190918E-1,2.371821E-2],"split_indices":[3,0,3,13,0,0,13,0,2,0,0,0,0],"split_type":[0,0,0,0,0,0,0,0,0,0,0,0,0],"sum_hessian":[4.179015E1,5.5161943E0,3.6273956E1,3.0912703E1,5.3612523E0,1.3462663E0,2.9566437E1,3.9088824E0,2.5657555E1,1.7764928E0,2.1323895E0,1.1133364E0,2.4544218E1],"tree_param":{"num_deleted":"0","num_feature":"17","num_nodes":"13","size_leaf_vector":"1"}},{"base_weights":[-3.5878513E-3,-2.4321054E-1,1.1565469E-1,-8.414232E-4,2.4192655E-1,1.0740475E-1,-9.642189E-2,-1.1647442E-1,3.260855E-1,1.1430902E-1,-3.037752E-1,-8.247483E-2,1.2320734E-1,-3.2804158E-2,1.6482885E-1,8.223928E-2,-1.7931627E-1,2.5230708E-2,-1.9023521E-1],"categories":[],"categories_nodes":[],"categories_segments":[],"categories_sizes":[],"default_left":[0,0,0,0,0,0,0,0,0,0,0,0,0,0,0,0,0,0,0],"id":27,"left_children":[1,-1,3,5,-1,7,9,11,13,15,17,-1,-1,-1,-1,-1,-1,-1,-1],"loss_changes":[3.947541E0,0E0,2.878609E0,3.3730945E-1,0E0,7.866391E-1,7.910715E-1,8.055716E-1,8.3798236E-1,1.2234687E0,1.2062693E0,0E0,0E0,0E0,0E0,0E0,0E0,0E0,0E0],"parents":[2147483647,0,0,2,2,3,3,5,5,6,6,7,7,8,8,9,9,10,10],"right_children":[2,-1,4,6,-1,8,10,12,14,16,18,-1,-1,-1,-1,-1,-1,-1,-1],"split_conditions":[5.99E2,-2.4321054E-1,6.01E2,2.59E0,2.4192655E-1,1.35E-1,1.4E-1,5.4E1,6E1,2.6394E4,4E1,-8.247483E-2,1.2320734E-1,-3.2804158E-2,1.6482885E-1,8.223928E-2,-1.7931627E-1,2.5230708E-2,-1.9023521E-1],"split_indices":[3,0,3,16,0,11,11,0,6,10,0,0,0,0,0,0,0,0,0],"split_type":[0,0,0,0,0,0,0,0,0,0,0,0,0,0,0,0,0,0,0],"sum_hessian":[3.9042465E1,4.2791986E0,3.4763268E1,3.0601229E1,4.1620374E0,1.4291829E1,1.63094E1,7.29292E0,6.9989085E0,8.311369E0,7.998031E0,5.9754705E0,1.3174496E0,2.5458713E0,4.4530373E0,7.290049E0,1.0213201E0,4.0215087E0,3.9765224E0],"tree_param":{"num_deleted":"0","num_feature":"17","num_nodes":"19","size_leaf_vector":"1"}},{"base_weights":[-4.880414E-3,-2.311505E-1,9.236428E-2,-3.175329E-3,2.2977783E-1,-5.8389384E-2,2.1233578E-1,1.6758211E-2,-2.9480687E-1,-6.663414E-2,3.6138082E-1,-6.28226E-2,5.105304E-2,9.237552E-2,-1.7063439E-1,1.5971282E-1,-1.2640981E-3],"categories":[],"categories_nodes":[],"categories_segments":[],"categories_sizes":[],"default_left":[0,0,0,0,0,0,0,0,0,0,0,0,0,0,0,0,0],"id":28,"left_children":[1,-1,3,5,-1,7,9,11,13,-1,15,-1,-1,-1,-1,-1,-1],"loss_changes":[2.8778632E0,0E0,2.2124152E0,3.8213137E-1,0E0,4.5832023E-1,5.045763E-1,7.403693E-1,1.2004163E0,0E0,3.3104825E-1,0E0,0E0,0E0,0E0,0E0,0E0],"parents":[2147483647,0,0,2,2,3,3,5,5,6,6,7,7,8,8,10,10],"right_children":[2,-1,4,6,-1,8,10,12,14,-1,16,-1,-1,-1,-1,-1,-1],"split_conditions":[5.99E2,-2.311505E-1,6.01E2,1.47E2,2.2977783E-1,5E0,1E0,4.8E5,9.04E1,-6.663414E-2,1.4E-1,-6.28226E-2,5.105304E-2,9.237552E-2,-1.7063439E-1,1.5971282E-1,-1.2640981E-3],"split_indices":[3,0,3,4,0,8,9,5,13,0,11,0,0,0,0,0,0],"split_type":[0,0,0,0,0,0,0,0,0,0,0,0,0,0,0,0,0],"sum_hessian":[3.669776E1,3.3555686E0,3.3342194E1,3.0071995E1,3.2701979E0,2.4519224E1,5.552772E0,1.9310356E1,5.208868E0,1.2931471E0,4.259625E0,7.657241E0,1.1653114E1,1.5890875E0,3.6197803E0,2.5913908E0,1.668234E0],"tree_param":{"num_deleted":"0","num_feature":"17","num_nodes":"17","size_leaf_vector":"1"}},{"base_weights":[-3.4652832E-3,-2.1812478E-1,7.647108E-2,-1.8915994E-3,2.166155E-1,4.4920985E-2,-2.929784E-1,3.0198553E-1,-7.918488E-2,-5.9791964E-1,8.85418E-2,1.3673772E-1,-6.826519E-2,-6.322823E-2,1.1412493E-1,-2.3933817E-1,-4.1647907E-2],"categories":[],"categories_nodes":[],"categories_segments":[],"categories_sizes":[],"default_left":[0,0,0,0,0,0,0,0,0,0,0,0,0,0,0,0,0],"id":29,"left_children":[1,-1,3,5,-1,7,9,11,13,15,-1,-1,-1,-1,-1,-1,-1],"loss_changes":[2.1302762E0,0E0,1.6811353E0,4.302309E-1,0E0,8.9276326E-1,9.6077704E-1,8.4283155E-1,1.2387722E0,1.838404E-1,0E0,0E0,0E0,0E0,0E0,0E0,0E0],"parents":[2147483647,0,0,2,2,3,3,5,5,6,6,7,7,8,8,9,9],"right_children":[2,-1,4,6,-1,8,10,12,14,16,-1,-1,-1,-1,-1,-1,-1],"split_conditions":[5.99E2,-2.1812478E-1,6.01E2,1.37655E5,2.166155E-1,2.02E0,5.2E1,1.17484E5,1.24697E5,2.52E0,8.85418E-2,1.3673772E-1,-6.826519E-2,-6.322823E-2,1.1412493E-1,-2.3933817E-1,-4.1647907E-2],"split_indices":[3,0,3,2,0,16,0,2,2,16,0,0,0,0,0,0,0],"split_type":[0,0,0,0,0,0,0,0,0,0,0,0,0,0,0,0,0],"sum_hessian":[3.4867146E1,2.6631787E0,3.2203968E1,2.9607216E1,2.5967512E0,2.623395E1,3.3732657E0,8.074885E0,1.8159063E1,2.2104647E0,1.162801E0,6.3653064E0,1.7095788E0,1.45384E1,3.6206646E0,1.0260127E0,1.184452E0],"tree_param":{"num_deleted":"0","num_feature":"17","num_nodes":"17","size_leaf_vector":"1"}},{"base_weights":[-4.3183733E-3,-2.0451517E-1,6.183726E-2,-3.3228667E-3,2.03026E-1,-1.3882E-1,8.252574E-2,2.2495738E-1,-3.7474304E-1,-1.5830709E-1,2.2077973E-1,1.8551064E-1,-1.11755654E-1,-2.34324E-1,5.202447E-2,-1.2628363E-1,6.626528E-2,2.2211862E-1,2.593644E-2],"categories":[],"categories_nodes":[],"categories_segments":[],"categories_sizes":[],"default_left":[0,0,0,0,0,0,0,0,0,0,0,0,0,0,0,0,0,0,0],"id":30,"left_children":[1,-1,3,5,-1,7,9,11,13,15,17,-1,-1,-1,-1,-1,-1,-1,-1],"loss_changes":[1.5825082E0,0E0,1.2936798E0,3.620281E-1,0E0,1.119486E0,6.7011255E-1,1.4925961E0,1.8486938E0,8.438427E-1,8.1101274E-1,0E0,0E0,0E0,0E0,0E0,0E0,0E0,0E0],"parents":[2147483647,0,0,2,2,3,3,5,5,6,6,7,7,8,8,9,9,10,10],"right_children":[2,-1,4,6,-1,8,10,12,14,16,18,-1,-1,-1,-1,-1,-1,-1,-1],"split_conditions":[5.99E2,-2.0451517E-1,6.01E2,3.6E1,2.03026E-1,1.00979E5,7.835E3,4.68E0,9.131E1,1.12E2,9.313E3,1.8551064E-1,-1.11755654E-1,-2.34324E-1,5.202447E-2,-1.2628363E-1,6.626528E-2,2.2211862E-1,2.593644E-2],"split_indices":[3,0,3,0,0,2,10,15,13,4,10,0,0,0,0,0,0,0,0],"split_type":[0,0,0,0,0,0,0,0,0,0,0,0,0,0,0,0,0,0,0],"sum_hessian":[3.3372322E1,2.1413434E0,3.1230978E1,2.9137947E1,2.0930321E0,1.1061792E1,1.8076155E1,4.370011E0,6.6917815E0,6.539524E0,1.1536631E1,2.6139038E0,1.7561069E0,3.5990045E0,3.092777E0,3.7984793E0,2.7410445E0,1.4429244E0,1.0093706E1],"tree_param":{"num_deleted":"0","num_feature":"17","num_nodes":"19","size_leaf_vector":"1"}},{"base_weights":[-2.300058E-4,-1.9073567E-1,5.562083E-2,9.7389176E-4,1.8927051E-1,4.1052166E-2,-2.4857828E-1,-4.0772684E-2,3.6852437E-1,-1.9041105E-1,5.0849333E-2,1.4033441E-2,-1.7142127E-1,1.5731308E-1,-3.0005565E-2],"categories":[],"categories_nodes":[],"categories_segments":[],"categories_sizes":[],"default_left":[0,0,0,0,0,0,0,0,0,0,0,0,0,0,0],"id":31,"left_children":[1,-1,3,5,-1,7,9,11,13,-1,-1,-1,-1,-1,-1],"loss_changes":[1.2063873E0,0E0,9.8163575E-1,3.056099E-1,0E0,7.199293E-1,7.9023707E-1,1.046379E0,4.4376475E-1,0E0,0E0,0E0,0E0,0E0,0E0],"parents":[2147483647,0,0,2,2,3,3,5,5,6,6,7,7,8,8],"right_children":[2,-1,4,6,-1,8,10,12,14,-1,-1,-1,-1,-1,-1],"split_conditions":[5.99E2,-1.9073567E-1,6.01E2,1.37655E5,1.8927051E-1,1.2508E5,1.42065E5,7.8E5,2.0185E4,-1.9041105E-1,5.0849333E-2,1.4033441E-2,-1.7142127E-1,1.5731308E-1,-3.0005565E-2],"split_indices":[3,0,3,2,0,2,2,5,10,0,0,0,0,0,0],"split_type":[0,0,0,0,0,0,0,0,0,0,0,0,0,0,0],"sum_hessian":[3.1990038E1,1.7453349E0,3.0244703E1,2.8535736E1,1.7089666E0,2.5306921E1,3.2288148E0,2.0948141E1,4.3587794E0,1.409178E0,1.8196368E0,1.876404E1,2.1841025E0,3.181383E0,1.1773962E0],"tree_param":{"num_deleted":"0","num_feature":"17","num_nodes":"15","size_leaf_vector":"1"}},{"base_weights":[-5.4292795E-3,-5.184594E-2,1.7573306E-1,-1.7717364E-1,-4.990018E-3,-3.7910476E-2,9.3588635E-2,-1.6178408E-1,8.054227E-3,4.1460197E-2,-4.213528E-2],"categories":[],"categories_nodes":[],"categories_segments":[],"categories_sizes":[],"default_left":[0,0,0,0,0,0,0,0,0,0,0],"id":32,"left_children":[1,3,-1,-1,5,7,-1,-1,9,-1,-1],"loss_changes":[9.096973E-1,7.7022505E-1,0E0,0E0,3.163708E-1,6.3422805E-1,0E0,0E0,5.223555E-1,0E0,0E0],"parents":[2147483647,0,0,1,1,4,4,5,5,8,8],"right_children":[2,4,-1,-1,6,8,-1,-1,10,-1,-1],"split_conditions":[6.01E2,5.99E2,1.7573306E-1,-1.7717364E-1,2.9695E4,2.3E1,9.3588635E-2,-1.6178408E-1,1E0,4.1460197E-2,-4.213528E-2],"split_indices":[3,3,0,0,10,0,0,0,1,0,0],"split_type":[0,0,0,0,0,0,0,0,0,0,0],"sum_hessian":[3.1043327E1,2.9629377E1,1.4139512E0,1.4422902E0,2.8187086E1,2.633244E1,1.8546473E0,1.3100713E0,2.5022367E1,1.3372453E1,1.1649916E1],"tree_param":{"num_deleted":"0","num_feature":"17","num_nodes":"11","size_leaf_vector":"1"}},{"base_weights":[-6.2035266E-3,-4.571498E-2,1.6275415E-1,-1.641457E-1,-5.9431735E-3,-7.258839E-2,1.3151108E-1,2.8066132E-2,-5.846103E-1,4.5513982E-1,-1.11558825E-1,-3.920965E-2,7.663201E-2,-2.523882E-2,-2.3553951E-1,2.5366256E-1,-2.9894877E-2,-1.1197124E-1,1.7818351E-1],"categories":[],"categories_nodes":[],"categories_segments":[],"categories_sizes":[],"default_left":[0,0,0,0,0,0,0,0,0,0,0,0,0,0,0,0,0,0,0],"id":33,"left_children":[1,3,-1,-1,5,7,9,11,13,15,17,-1,-1,-1,-1,-1,-1,-1,-1],"loss_changes":[7.0520616E-1,5.9897655E-1,0E0,0E0,2.7510706E-1,1.0557944E0,8.233851E-1,6.762572E-1,2.7105546E-1,1.0393293E0,1.405442E0,0E0,0E0,0E0,0E0,0E0,0E0,0E0,0E0],"parents":[2147483647,0,0,1,1,4,4,5,5,6,6,7,7,8,8,9,9,10,10],"right_children":[2,4,-1,-1,6,8,10,12,14,16,18,-1,-1,-1,-1,-1,-1,-1,-1],"split_conditions":[6.01E2,5.99E2,1.6275415E-1,-1.641457E-1,1.6E-1,1.48E-1,1.2663E4,4.5E1,2.79E0,4.8E1,2.4885E4,-3.920965E-2,7.663201E-2,-2.523882E-2,-2.3553951E-1,2.5366256E-1,-2.9894877E-2,-1.1197124E-1,1.7818351E-1],"split_indices":[3,3,0,0,11,11,10,0,16,0,10,0,0,0,0,0,0,0,0],"split_type":[0,0,0,0,0,0,0,0,0,0,0,0,0,0,0,0,0,0,0],"sum_hessian":[3.0383106E1,2.919738E1,1.1857265E0,1.2081321E0,2.7989248E1,1.916765E1,8.821599E0,1.6808565E1,2.3590837E0,3.409564E0,5.412035E0,1.0147914E1,6.660651E0,1.0808774E0,1.2782061E0,1.6936649E0,1.715899E0,4.291308E0,1.1207268E0],"tree_param":{"num_deleted":"0","num_feature":"17","num_nodes":"19","size_leaf_vector":"1"}},{"base_weights":[-1.7199162E-3,-1.5187623E-1,3.300852E-2,-1.2225359E-3,1.505741E-1,-1.3760546E-1,7.042725E-2,1.475323E-1,-4.0015712E-1,1.9626808E-1,-2.4256967E-1,-1.11993514E-1,1.102119E-1,1.3695832E-2,-1.9213304E-1,1.02426335E-1,-6.047444E-2,-1.9262458E-1,8.011614E-2],"categories":[],"categories_nodes":[],"categories_segments":[],"categories_sizes":[],"default_left":[0,0,0,0,0,0,0,0,0,0,0,0,0,0,0,0,0,0,0],"id":34,"left_children":[1,-1,3,5,-1,7,9,11,13,15,17,-1,-1,-1,-1,-1,-1,-1,-1],"loss_changes":[5.5108136E-1,0E0,4.7367904E-1,2.8784397E-1,0E0,8.183216E-1,8.0868113E-1,7.775171E-1,6.2372667E-1,8.966211E-1,1.390666E0,0E0,0E0,0E0,0E0,0E0,0E0,0E0,0E0],"parents":[2147483647,0,0,2,2,3,3,5,5,6,6,7,7,8,8,9,9,10,10],"right_children":[2,-1,4,6,-1,8,10,12,14,16,18,-1,-1,-1,-1,-1,-1,-1,-1],"split_conditions":[5.99E2,-1.5187623E-1,6.01E2,1.17E-1,1.505741E-1,1.03E-1,3E0,4.201E3,9.084E3,8.3E5,1E0,-1.11993514E-1,1.102119E-1,1.3695832E-2,-1.9213304E-1,1.02426335E-1,-6.047444E-2,-1.9262458E-1,8.011614E-2],"split_indices":[3,0,3,11,0,11,9,10,10,5,1,0,0,0,0,0,0,0,0],"split_type":[0,0,0,0,0,0,0,0,0,0,0,0,0,0,0,0,0,0,0],"sum_hessian":[2.949768E1,1.0252569E0,2.8472425E1,2.7464828E1,1.0075969E0,9.14228E0,1.8322548E1,4.59264E0,4.54964E0,1.3334381E1,4.988167E0,1.155928E0,3.436712E0,1.8770688E0,2.6725712E0,9.873814E0,3.460568E0,2.6504602E0,2.3377063E0],"tree_param":{"num_deleted":"0","num_feature":"17","num_nodes":"19","size_leaf_vector":"1"}},{"base_weights":[-9.825146E-3,-7.6709546E-2,1.161865E-1,2.502381E-1,-1.4436904E-1,3.3927822E-1,-1.1224768E-1,1.4783458E-1,-3.521763E-2,-2.260071E-1,1.6400973E-1,5.927115E-1,-3.820139E-2,-2.909255E-1,1.1549709E-1,-1.7926075E-1,-1.2175984E-1,2.8996129E-2,2.269647E-1,-1.9795313E-1,2.6131963E-2,4.5444192E-3,-1.4136796E-1,1.09288566E-1,-1.2378446E-1],"categories":[],"categories_nodes":[],"categories_segments":[],"categories_sizes":[],"default_left":[0,0,0,0,0,0,0,0,0,0,0,0,0,0,0,0,0,0,0,0,0,0,0,0,0],"id":35,"left_children":[1,3,5,7,9,11,13,-1,-1,15,-1,17,-1,19,-1,-1,21,-1,-1,-1,23,-1,-1,-1,-1],"loss_changes":[2.5833267E-1,4.771025E-1,5.812773E-1,3.9524132E-1,1.0911603E0,7.425667E-1,6.4665496E-1,0E0,0E0,5.487294E-1,0E0,2.3835123E-1,0E0,6.016823E-1,0E0,0E0,6.667393E-1,0E0,0E0,0E0,6.9171757E-1,0E0,0E0,0E0,0E0],"parents":[2147483647,0,0,1,1,2,2,3,3,4,4,5,5,6,6,9,9,11,11,13,13,16,16,20,20],"right_children":[2,4,6,8,10,12,14,-1,-1,16,-1,18,-1,20,-1,-1,22,-1,-1,-1,24,-1,-1,-1,-1],"split_conditions":[6.87E5,3.65E0,8.3E5,5.6E1,2E-1,3E0,1.28E2,1.4783458E-1,-3.521763E-2,4.13E0,1.6400973E-1,2.52E0,-3.820139E-2,3.6E1,1.1549709E-1,-1.7926075E-1,1.49E-1,2.8996129E-2,2.269647E-1,-1.9795313E-1,3E0,4.5444192E-3,-1.4136796E-1,1.09288566E-1,-1.2378446E-1],"split_indices":[5,15,5,0,11,9,4,0,0,15,0,16,0,0,0,0,11,0,0,0,7,0,0,0,0],"split_type":[0,0,0,0,0,0,0,0,0,0,0,0,0,0,0,0,0,0,0,0,0,0,0,0,0],"sum_hessian":[2.8593468E1,1.8934614E1,9.6588545E0,2.783852E0,1.615076E1,4.6410813E0,5.0177727E0,1.4721642E0,1.311688E0,1.5046259E1,1.1045024E0,2.8324559E0,1.8086252E0,3.9965625E0,1.0212106E0,2.2599773E0,1.2786282E1,1.0979829E0,1.7344731E0,1.3475021E0,2.6490602E0,9.874484E0,2.911798E0,1.5918423E0,1.057218E0],"tree_param":{"num_deleted":"0","num_feature":"17","num_nodes":"25","size_leaf_vector":"1"}},{"base_weights":[-3.6094561E-3,-3.6411457E-2,2.5118542E-1,1.5910743E-1,-8.479724E-2,-5.7229227E-3,1.268275E-1,-8.712119E-2,3.3348754E-1,-2.8313443E-1,2.0344779E-2,4.7839928E-1,-1.762805E-2,1.222471E-1,-4.626349E-1,3.979697E-1,-8.87935E-2,3.6624186E-2,1.7719656E-1,-4.102222E-2,9.4807915E-2,-4.2796936E-2,-1.8914838E-1,-7.7137114E-3,2.0775299E-1,-1.1965117E-1,3.0954354E-2],"categories":[],"categories_nodes":[],"categories_segments":[],"categories_sizes":[],"default_left":[0,0,0,0,0,0,0,0,0,0,0,0,0,0,0,0,0,0,0,0,0,0,0,0,0,0,0],"id":36,"left_children":[1,3,5,7,9,-1,-1,-1,11,13,15,17,-1,19,21,23,25,-1,-1,-1,-1,-1,-1,-1,-1,-1,-1],"loss_changes":[2.5027266E-1,2.635605E-1,1.6651748E-1,5.351418E-1,4.612413E-1,0E0,0E0,0E0,2.835635E-1,6.120722E-1,6.620928E-1,6.353372E-2,0E0,2.004955E-1,2.0548654E-1,4.66075E-1,7.9203093E-1,0E0,0E0,0E0,0E0,0E0,0E0,0E0,0E0,0E0,0E0],"parents":[2147483647,0,0,1,1,2,2,3,3,4,4,8,8,9,9,10,10,11,11,13,13,14,14,15,15,16,16],"right_children":[2,4,6,8,10,-1,-1,-1,12,14,16,18,-1,20,22,24,26,-1,-1,-1,-1,-1,-1,-1,-1,-1,-1],"split_conditions":[1.63E2,1.54E0,3.03E0,1E0,4.8E5,-5.7229227E-3,1.268275E-1,-8.712119E-2,7.9E5,7.6E1,8.659E3,3.1E5,-1.762805E-2,4.6116E4,3.3E5,9.131E1,1.3E-1,3.6624186E-2,1.7719656E-1,-4.102222E-2,9.4807915E-2,-4.2796936E-2,-1.8914838E-1,-7.7137114E-3,2.0775299E-1,-1.1965117E-1,3.0954354E-2],"split_indices":[4,16,16,9,5,0,0,0,5,4,10,5,0,2,5,13,11,0,0,0,0,0,0,0,0,0,0],"split_type":[0,0,0,0,0,0,0,0,0,0,0,0,0,0,0,0,0,0,0,0,0,0,0,0,0,0,0],"sum_hessian":[2.7850552E1,2.5433382E1,2.4171696E0,4.591517E0,2.0841866E1,1.2837768E0,1.1333928E0,1.0973788E0,3.494138E0,6.6342707E0,1.4207595E1,2.3911264E0,1.1030117E0,2.1339483E0,4.500323E0,2.5921454E0,1.1615449E1,1.0729449E0,1.3181814E0,1.0392838E0,1.0946646E0,2.185026E0,2.3152966E0,1.4373252E0,1.1548202E0,4.029752E0,7.585697E0],"tree_param":{"num_deleted":"0","num_feature":"17","num_nodes":"27","size_leaf_vector":"1"}},{"base_weights":[3.8671498E-3,4.0144056E-2,-2.2478141E-1,-2.002647E-2,4.0301383E-1,-1.3008069E-1,5.532422E-2,1.772963E-1,-1.20128445E-1,-4.9128123E-3,1.7197283E-1,3.2910088E-1,-1.3136104E-1,6.959157E-2,-3.05701E-1,-9.57671E-3,1.6818072E-1,8.826788E-2,-1.2073381E-1,-1.3675849E-1,3.109302E-2],"categories":[],"categories_nodes":[],"categories_segments":[],"categories_sizes":[],"default_left":[0,0,0,0,0,0,0,0,0,0,0,0,0,0,0,0,0,0,0,0,0],"id":37,"left_children":[1,3,5,7,9,-1,-1,11,13,-1,-1,15,-1,17,19,-1,-1,-1,-1,-1,-1],"loss_changes":[2.442547E-1,5.610074E-1,4.247337E-1,4.69187E-1,2.6992154E-1,0E0,0E0,8.9449894E-1,5.718968E-1,0E0,0E0,6.042717E-1,0E0,1.0248035E0,5.446216E-1,0E0,0E0,0E0,0E0,0E0,0E0],"parents":[2147483647,0,0,1,1,2,2,3,3,4,4,7,7,8,8,11,11,13,13,14,14],"right_children":[2,4,6,8,10,-1,-1,12,14,-1,-1,16,-1,18,20,-1,-1,-1,-1,-1,-1],"split_conditions":[1.38809E5,1.29128E5,5.2E1,2.02E0,9.095E1,-1.3008069E-1,5.532422E-2,1.17484E5,1E0,-4.9128123E-3,1.7197283E-1,3.6E5,-1.3136104E-1,3E0,1.4236E4,-9.57671E-3,1.6818072E-1,8.826788E-2,-1.2073381E-1,-1.3675849E-1,3.109302E-2],"split_indices":[2,2,0,16,13,0,0,2,1,0,0,5,0,9,10,0,0,0,0,0,0],"split_type":[0,0,0,0,0,0,0,0,0,0,0,0,0,0,0,0,0,0,0,0,0],"sum_hessian":[2.7359327E1,2.4324484E1,3.034843E0,2.1675154E1,2.6493306E0,1.9699112E0,1.0649318E0,7.035498E0,1.4639654E1,1.0258248E0,1.623506E0,6.015961E0,1.0195371E0,7.547975E0,7.091679E0,2.6872854E0,3.3286757E0,5.369439E0,2.1785362E0,5.105266E0,1.9864131E0],"tree_param":{"num_deleted":"0","num_feature":"17","num_nodes":"21","size_leaf_vector":"1"}},{"base_weights":[2.7208722E-3,-2.9132659E-2,2.4765827E-1,5.9705995E-2,-1.2168363E-1,3.2670342E-3,1.1525482E-1,-9.1802396E-2,1.6939586E-1,-4.1411653E-1,2.5014514E-2,1.958608E-1,-3.516817E-1,-1.9806613E-1,-5.1628663E-3,2.2087613E-1,-2.6518062E-1,-4.219306E-2,1.5825063E-1,-2.0715848E-1,4.457325E-2,1.7047986E-1,-9.910598E-4,-1.7706975E-1,7.253122E-2],"categories":[],"categories_nodes":[],"categories_segments":[],"categories_sizes":[],"default_left":[0,0,0,0,0,0,0,0,0,0,0,0,0,0,0,0,0,0,0,0,0,0,0,0,0],"id":38,"left_children":[1,3,5,7,9,-1,-1,11,-1,13,15,17,19,-1,-1,21,23,-1,-1,-1,-1,-1,-1,-1,-1],"loss_changes":[2.2212829E-1,2.1504001E-1,1.01686865E-1,1.0895758E0,5.554255E-1,0E0,0E0,9.13198E-1,0E0,4.0880877E-1,5.930895E-1,7.4409115E-1,1.1690385E0,0E0,0E0,4.8162508E-1,8.420423E-1,0E0,0E0,0E0,0E0,0E0,0E0,0E0,0E0],"parents":[2147483647,0,0,1,1,2,2,3,3,4,4,7,7,9,9,10,10,11,11,12,12,15,15,16,16],"right_children":[2,4,6,8,10,-1,-1,12,-1,14,16,18,20,-1,-1,22,24,-1,-1,-1,-1,-1,-1,-1,-1],"split_conditions":[1.63E2,1.2663E4,3.03E0,9.964E3,6.05E5,3.2670342E-3,1.1525482E-1,1.24E-1,1.6939586E-1,1.4236E4,8.5E5,5.408E3,1.59E-1,-1.9806613E-1,-5.1628663E-3,2.8E1,1.73E-1,-4.219306E-2,1.5825063E-1,-2.0715848E-1,4.457325E-2,1.7047986E-1,-9.910598E-4,-1.7706975E-1,7.253122E-2],"split_indices":[4,10,16,10,5,0,0,11,0,10,5,10,11,0,0,0,11,0,0,0,0,0,0,0,0],"split_type":[0,0,0,0,0,0,0,0,0,0,0,0,0,0,0,0,0,0,0,0,0,0,0,0,0],"sum_hessian":[2.6545502E1,2.4270271E1,2.2752306E0,1.2564567E1,1.1705704E1,1.2270247E0,1.0482061E0,1.0294049E1,2.270517E0,3.3014896E0,8.404214E0,5.00277E0,5.29128E0,1.6283877E0,1.673102E0,5.160264E0,3.2439504E0,2.769041E0,2.2337286E0,2.9278104E0,2.3634694E0,1.421943E0,3.7383208E0,1.8764877E0,1.3674626E0],"tree_param":{"num_deleted":"0","num_feature":"17","num_nodes":"25","size_leaf_vector":"1"}},{"base_weights":[5.724689E-3,4.6176583E-2,-1.6827713E-1,-1.3770807E-1,1.6493301E-1,8.455603E-2,-4.7219124E-1,1.1220317E-1,-3.862083E-1,3.135175E-1,-2.0472695E-1,-2.2543651E-1,2.9322589E-2,-1.3591789E-1,1.3716325E-1,1.2230698E-2,-5.7629114E-1,-1.5044709E-1,4.4919223E-1,7.264428E-2,-4.0747485E-1,-9.485392E-2,3.332832E-2,-2.3741148E-1,-2.2793965E-2,-1.08196445E-1,4.1549392E-2,2.3849717E-1,6.358436E-2,-1.7148319E-1,-1.451344E-2],"categories":[],"categories_nodes":[],"categories_segments":[],"categories_sizes":[],"default_left":[0,0,0,0,0,0,0,0,0,0,0,0,0,0,0,0,0,0,0,0,0,0,0,0,0,0,0,0,0,0,0],"id":39,"left_children":[1,3,5,7,9,-1,11,13,15,17,19,-1,-1,21,-1,-1,23,25,27,-1,29,-1,-1,-1,-1,-1,-1,-1,-1,-1,-1],"loss_changes":[1.951151E-1,5.1144546E-1,8.493655E-1,6.225731E-1,8.3607775E-1,0E0,6.304169E-1,5.2656126E-1,4.2133504E-1,7.234509E-1,5.18538E-1,0E0,0E0,2.099629E-1,0E0,0E0,3.119701E-1,2.3863772E-1,5.134628E-1,0E0,1.8220997E-1,0E0,0E0,0E0,0E0,0E0,0E0,0E0,0E0,0E0,0E0],"parents":[2147483647,0,0,1,1,2,2,3,3,4,4,6,6,7,7,8,8,9,9,10,10,13,13,16,16,17,17,18,18,20,20],"right_children":[2,4,6,8,10,-1,12,14,16,18,20,-1,-1,22,-1,-1,24,26,28,-1,30,-1,-1,-1,-1,-1,-1,-1,-1,-1,-1],"split_conditions":[1.9E-1,3.7E1,4E1,3.33E0,5.24E0,8.455603E-2,1.09E2,2.26E0,9.7193E4,9.008E1,1.04E-1,-2.2543651E-1,2.9322589E-2,2E0,1.3716325E-1,1.2230698E-2,9.105E1,1.3E-1,9.057E1,7.264428E-2,6.89E0,-9.485392E-2,3.332832E-2,-2.3741148E-1,-2.2793965E-2,-1.08196445E-1,4.1549392E-2,2.3849717E-1,6.358436E-2,-1.7148319E-1,-1.451344E-2],"split_indices":[11,0,0,16,15,0,4,16,2,13,11,0,0,9,0,0,13,11,13,0,14,0,0,0,0,0,0,0,0,0,0],"split_type":[0,0,0,0,0,0,0,0,0,0,0,0,0,0,0,0,0,0,0,0,0,0,0,0,0,0,0,0,0,0,0],"sum_hessian":[2.5616356E1,2.1380453E1,4.235902E0,8.327074E0,1.305338E1,1.7365167E0,2.4993854E0,4.425213E0,3.9018612E0,9.419211E0,3.634168E0,1.4636897E0,1.0356956E0,2.9265518E0,1.4986608E0,1.4439286E0,2.4579327E0,2.1065605E0,7.312651E0,1.0735778E0,2.5605903E0,1.529994E0,1.3965578E0,1.3121079E0,1.1458248E0,1.0757638E0,1.0307968E0,2.018959E0,5.293692E0,1.3511883E0,1.209402E0],"tree_param":{"num_deleted":"0","num_feature":"17","num_nodes":"31","size_leaf_vector":"1"}},{"base_weights":[-2.3464218E-3,-7.729724E-2,2.5165487E-2,3.364806E-1,-2.32292E-2,-1.3751888E-2,1.6515912E-1,-3.9627305E-1,4.1327532E-2,-1.8894158E-1,3.8191334E-3,1.5592724E-1,-8.516616E-2,8.7644875E-2,-6.444308E-2,-1.4429125E-1,1.7832018E-2],"categories":[],"categories_nodes":[],"categories_segments":[],"categories_sizes":[],"default_left":[0,0,0,0,0,0,0,0,0,0,0,0,0,0,0,0,0],"id":40,"left_children":[1,-1,3,5,7,-1,-1,9,11,-1,-1,13,15,-1,-1,-1,-1],"loss_changes":[1.8817817E-1,0E0,3.733476E-1,2.9764572E-1,5.445848E-1,0E0,0E0,3.2609695E-1,2.9744953E-1,0E0,0E0,6.0002315E-1,5.9893084E-1,0E0,0E0,0E0,0E0],"parents":[2147483647,0,0,2,2,3,3,4,4,7,7,8,8,11,11,12,12],"right_children":[2,-1,4,6,8,-1,-1,10,12,-1,-1,14,16,-1,-1,-1,-1],"split_conditions":[8.7E-2,-7.729724E-2,1.02E-1,3.8E1,1.08E-1,-1.3751888E-2,1.6515912E-1,2E0,1.02619E5,-1.8894158E-1,3.8191334E-3,1.89E-1,4.1E1,8.7644875E-2,-6.444308E-2,-1.4429125E-1,1.7832018E-2],"split_indices":[11,0,11,0,11,0,0,7,2,0,0,11,4,0,0,0,0],"split_type":[0,0,0,0,0,0,0,0,0,0,0,0,0,0,0,0,0],"sum_hessian":[2.486726E1,1.6052454E0,2.3262014E1,2.328744E0,2.093327E1,1.1178919E0,1.2108519E0,2.330132E0,1.8603138E1,1.1395949E0,1.1905372E0,9.638364E0,8.964774E0,7.203511E0,2.434853E0,1.7764214E0,7.1883526E0],"tree_param":{"num_deleted":"0","num_feature":"17","num_nodes":"17","size_leaf_vector":"1"}},{"base_weights":[-1.0144183E-2,-4.3899294E-2,2.0649761E-1,4.5591677E-3,-1.5134166E-1,-5.1097773E-2,1.5525399E-1,-6.846017E-2,2.4178487E-1,7.0240386E-2,-2.319049E-1,4.5730078E-1,-4.4336278E-2,7.373547E-2,-5.159882E-2,7.133982E-2,-1.1768083E-1,2.4226155E-2,1.798724E-1,-8.349869E-2,5.6683242E-2],"categories":[],"categories_nodes":[],"categories_segments":[],"categories_sizes":[],"default_left":[0,0,0,0,0,0,0,0,0,0,0,0,0,0,0,0,0,0,0,0,0],"id":41,"left_children":[1,3,5,7,-1,-1,-1,9,11,13,15,17,19,-1,-1,-1,-1,-1,-1,-1,-1],"loss_changes":[1.9565019E-1,5.1339877E-1,5.118052E-1,3.9263344E-1,0E0,0E0,0E0,4.103028E-1,3.4897867E-1,4.74713E-1,7.117686E-1,1.192016E-1,2.2736032E-1,0E0,0E0,0E0,0E0,0E0,0E0,0E0,0E0],"parents":[2147483647,0,0,1,1,2,2,3,3,7,7,8,8,9,9,10,10,11,11,12,12],"right_children":[2,4,6,8,-1,-1,-1,10,12,14,16,18,20,-1,-1,-1,-1,-1,-1,-1,-1],"split_conditions":[2.5361E4,2.1035E4,9.117E1,1.26186E5,-1.5134166E-1,-5.1097773E-2,1.5525399E-1,1E0,1.05E2,5.38E5,1.92E0,1.4899E4,9.127E1,7.373547E-2,-5.159882E-2,7.133982E-2,-1.1768083E-1,2.4226155E-2,1.798724E-1,-8.349869E-2,5.6683242E-2],"split_indices":[10,10,13,2,0,0,0,1,4,5,16,10,13,0,0,0,0,0,0,0,0],"split_type":[0,0,0,0,0,0,0,0,0,0,0,0,0,0,0,0,0,0,0,0,0],"sum_hessian":[2.4514975E1,2.1900072E1,2.6149013E0,2.0711088E1,1.188984E0,1.3869013E0,1.2279999E0,1.6380497E1,4.3305907E0,9.169464E0,7.2110333E0,2.128818E0,2.201773E0,5.3081164E0,3.861348E0,1.7124466E0,5.4985867E0,1.0136503E0,1.1151676E0,1.0028011E0,1.1989719E0],"tree_param":{"num_deleted":"0","num_feature":"17","num_nodes":"21","size_leaf_vector":"1"}},{"base_weights":[-2.8603305E-3,-1.9736016E-1,3.4408893E-2,-1.3578628E-1,5.8218833E-2,1.0182905E-1,-1.5559947E-1,3.311832E-1,-8.8629946E-2,8.238894E-2,-3.3458185E-1,4.663347E-1,-5.632255E-2,-4.3566895E-1,8.159303E-2,1.6347738E-2,-2.1610393E-1,-1.11991195E-2,1.7626289E-1,3.5581505E-3,-2.0461304E-1,6.884028E-2,-8.289613E-2,-7.086598E-2,8.318504E-2],"categories":[],"categories_nodes":[],"categories_segments":[],"categories_sizes":[],"default_left":[0,0,0,0,0,0,0,0,0,0,0,0,0,0,0,0,0,0,0,0,0,0,0,0,0],"id":42,"left_children":[1,3,5,-1,-1,7,9,11,13,-1,15,17,-1,19,21,23,-1,-1,-1,-1,-1,-1,-1,-1,-1],"loss_changes":[1.879597E-1,5.042198E-1,2.9543597E-1,0E0,0E0,7.594528E-1,5.6249976E-1,6.341532E-1,6.2156284E-1,0E0,6.5709287E-1,4.1693807E-1,0E0,3.8542795E-1,4.6023485E-1,2.9444557E-1,0E0,0E0,0E0,0E0,0E0,0E0,0E0,0E0,0E0],"parents":[2147483647,0,0,1,1,2,2,5,5,6,6,7,7,8,8,10,10,11,11,13,13,14,14,15,15],"right_children":[2,4,6,-1,-1,8,10,12,14,-1,16,18,-1,20,22,24,-1,-1,-1,-1,-1,-1,-1,-1,-1],"split_conditions":[4.088E3,1.22E2,5.7E1,-1.3578628E-1,5.8218833E-2,1.2663E4,1.31E-1,3.68E0,1.509E4,8.238894E-2,3E0,6.6224E4,-5.632255E-2,6.41E0,1.34083E5,9.157E1,-2.1610393E-1,-1.11991195E-2,1.7626289E-1,3.5581505E-3,-2.0461304E-1,6.884028E-2,-8.289613E-2,-7.086598E-2,8.318504E-2],"split_indices":[10,4,0,0,0,10,11,16,10,0,7,2,0,14,2,13,0,0,0,0,0,0,0,0,0],"split_type":[0,0,0,0,0,0,0,0,0,0,0,0,0,0,0,0,0,0,0,0,0,0,0,0,0],"sum_hessian":[2.3992731E1,3.1673756E0,2.0825356E1,1.8225069E0,1.3448687E0,1.5713765E1,5.1115913E0,6.7937455E0,8.920019E0,1.3447502E0,3.7668412E0,5.470361E0,1.3233843E0,2.4222665E0,6.497753E0,2.473931E0,1.2929101E0,1.1953313E0,4.2750297E0,1.1980025E0,1.2242639E0,4.8519917E0,1.6457615E0,1.3052549E0,1.1686763E0],"tree_param":{"num_deleted":"0","num_feature":"17","num_nodes":"25","size_leaf_vector":"1"}},{"base_weights":[-1.5015345E-2,-1.5123577E-1,2.8195793E-2,-1.7322192E-2,1.893719E-1,3.870491E-2,-2.6490048E-1,-6.907456E-2,3.5822397E-1,-2.725842E-1,1.2449743E-1,-1.5549771E-1,4.280804E-2,1.684922E-1,1.8202763E-2,-1.2645568E-1,1.624991E-2,9.248963E-2,-1.4883082E-2],"categories":[],"categories_nodes":[],"categories_segments":[],"categories_sizes":[],"default_left":[0,0,0,0,0,0,0,0,0,0,0,0,0,0,0,0,0,0,0],"id":43,"left_children":[1,-1,3,5,7,9,11,-1,13,15,17,-1,-1,-1,-1,-1,-1,-1,-1],"loss_changes":[5.254418E-1,0E0,1.73283E-1,2.7360442E-1,4.4998658E-1,4.7070527E-1,4.490324E-1,0E0,2.1346325E-1,2.1004727E-1,4.4755128E-1,0E0,0E0,0E0,0E0,0E0,0E0,0E0,0E0],"parents":[2147483647,0,0,2,2,3,3,4,4,5,5,6,6,8,8,9,9,10,10],"right_children":[2,-1,4,6,8,10,12,-1,14,16,18,-1,-1,-1,-1,-1,-1,-1,-1],"split_conditions":[5.99E2,-1.5123577E-1,1.47E2,1.3E2,1E0,5.0596E4,3E0,-6.907456E-2,2.79E0,1.48E-1,4E0,-1.5549771E-1,4.280804E-2,1.684922E-1,1.8202763E-2,-1.2645568E-1,1.624991E-2,9.248963E-2,-1.4883082E-2],"split_indices":[3,0,4,4,9,2,7,0,16,11,8,0,0,0,0,0,0,0,0],"split_type":[0,0,0,0,0,0,0,0,0,0,0,0,0,0,0,0,0,0,0],"sum_hessian":[2.3188984E1,1.0165303E0,2.2172455E1,1.7985632E1,4.186823E0,1.5354553E1,2.6310778E0,1.097005E0,3.0898178E0,2.847057E0,1.2507496E1,1.4548439E0,1.176234E0,1.3080301E0,1.7817876E0,1.7564327E0,1.0906245E0,5.70944E0,6.798056E0],"tree_param":{"num_deleted":"0","num_feature":"17","num_nodes":"19","size_leaf_vector":"1"}},{"base_weights":[-1.8628614E-2,-4.391432E-2,6.3650206E-2,-1.6156205E-3,-2.9134583E-1,-4.3345593E-2,1.0786148E-1,1.0380512E-2,-1.3606691E-1,1.314024E-2,-1.1096914E-1,7.720207E-2,-3.7292104E-2],"categories":[],"categories_nodes":[],"categories_segments":[],"categories_sizes":[],"default_left":[0,0,0,0,0,0,0,0,0,0,0,0,0],"id":44,"left_children":[1,3,-1,5,7,9,-1,-1,-1,11,-1,-1,-1],"loss_changes":[1.4727977E-1,2.3119281E-1,0E0,3.1562936E-1,1.8625706E-1,3.5051382E-1,0E0,0E0,0E0,6.0062075E-1,0E0,0E0,0E0],"parents":[2147483647,0,0,1,1,3,3,4,4,5,5,9,9],"right_children":[2,4,-1,6,8,10,-1,-1,-1,12,-1,-1,-1],"split_conditions":[2.07E-1,1.92E-1,6.3650206E-2,1.73E-1,1E0,8.9E5,1.0786148E-1,1.0380512E-2,-1.3606691E-1,7.5E1,-1.1096914E-1,7.720207E-2,-3.7292104E-2],"split_indices":[11,11,0,11,1,5,0,0,0,4,0,0,0],"split_type":[0,0,0,0,0,0,0,0,0,0,0,0,0],"sum_hessian":[2.2640574E1,2.11348E1,1.5057746E0,1.890884E1,2.2259586E0,1.7739132E1,1.1697096E0,1.0010747E0,1.2248838E0,1.59414E1,1.7977314E0,5.427024E0,1.0514376E1],"tree_param":{"num_deleted":"0","num_feature":"17","num_nodes":"13","size_leaf_vector":"1"}},{"base_weights":[-1.4334682E-2,-5.7067774E-2,1.4420511E-1,-2.5118366E-2,-9.270638E-2,-5.7927907E-2,2.8375402E-1,3.9717205E-2,-2.7972922E-1,1.3857271E-1,1.0970766E-2,1.3833342E-1,-1.9709545E-1,-1.5015002E-1,3.6020286E-2,-2.6994072E-2,8.124244E-2,-1.3031079E-1,8.274332E-2],"categories":[],"categories_nodes":[],"categories_segments":[],"categories_sizes":[],"default_left":[0,0,0,0,0,0,0,0,0,0,0,0,0,0,0,0,0,0,0],"id":45,"left_children":[1,3,5,7,-1,-1,9,11,13,-1,-1,15,17,-1,-1,-1,-1,-1,-1],"loss_changes":[1.6636074E-1,1.4600173E-1,3.0139366E-1,3.0891973E-1,0E0,0E0,1.6413766E-1,3.835149E-1,3.942481E-1,0E0,0E0,3.6787945E-1,6.693189E-1,0E0,0E0,0E0,0E0,0E0,0E0],"parents":[2147483647,0,0,1,1,2,2,3,3,6,6,7,7,8,8,11,11,12,12],"right_children":[2,4,6,8,-1,-1,10,12,14,-1,-1,16,18,-1,-1,-1,-1,-1,-1],"split_conditions":[1.48E2,7.44E0,1E0,6.1E1,-9.270638E-2,-5.7927907E-2,2.79E0,5.37E0,9.2E1,1.3857271E-1,1.0970766E-2,4.87E0,7.01E0,-1.5015002E-1,3.6020286E-2,-2.6994072E-2,8.124244E-2,-1.3031079E-1,8.274332E-2],"split_indices":[4,14,9,0,0,0,16,15,4,0,0,14,14,0,0,0,0,0,0],"split_type":[0,0,0,0,0,0,0,0,0,0,0,0,0,0,0,0,0,0,0],"sum_hessian":[2.2340767E1,1.8101656E1,4.239111E0,1.70405E1,1.0611565E0,1.1282846E0,3.1108263E0,1.4254628E1,2.7858722E0,1.3030165E0,1.8078097E0,1.0357353E1,3.8972743E0,1.6325049E0,1.1533674E0,3.9208078E0,6.436546E0,2.6494446E0,1.2478296E0],"tree_param":{"num_deleted":"0","num_feature":"17","num_nodes":"19","size_leaf_vector":"1"}},{"base_weights":[-1.5042583E-2,-3.880675E-2,6.0333848E-2,1.4906977E-1,-7.897488E-2,-8.848521E-2,1.4698277E-1,3.1106947E-2,-2.4956812E-1,-1.2499129E-1,4.2963314E-1,-1.5693136E-1,-5.4514654E-2,-9.1141656E-2,6.336854E-2,1.7630522E-1,4.711247E-3,-9.878476E-2,7.594511E-2],"categories":[],"categories_nodes":[],"categories_segments":[],"categories_sizes":[],"default_left":[0,0,0,0,0,0,0,0,0,0,0,0,0,0,0,0,0,0,0],"id":46,"left_children":[1,3,-1,5,7,-1,-1,9,11,13,15,-1,17,-1,-1,-1,-1,-1,-1],"loss_changes":[1.2580667E-1,1.7428967E-1,0E0,7.710434E-1,3.532156E-1,0E0,0E0,8.045572E-1,3.6233473E-1,6.321615E-1,2.2775549E-1,0E0,5.392301E-1,0E0,0E0,0E0,0E0,0E0,0E0],"parents":[2147483647,0,0,1,1,3,3,4,4,7,7,8,8,9,9,10,10,12,12],"right_children":[2,4,-1,6,8,-1,-1,10,12,14,16,-1,18,-1,-1,-1,-1,-1,-1],"split_conditions":[2.07E-1,3.65E0,6.0333848E-2,1.31E-1,1.46E-1,-8.848521E-2,1.4698277E-1,6.6E5,1.6E-1,4.8E1,8.4E1,-1.5693136E-1,9.184E1,-9.1141656E-2,6.336854E-2,1.7630522E-1,4.711247E-3,-9.878476E-2,7.594511E-2],"split_indices":[11,15,0,11,11,0,0,5,11,0,6,0,13,0,0,0,0,0,0],"split_type":[0,0,0,0,0,0,0,0,0,0,0,0,0,0,0,0,0,0,0],"sum_hessian":[2.1972126E1,2.0534977E1,1.4371508E0,3.1395168E0,1.739546E1,1.4219742E0,1.7175425E0,1.106986E1,6.3255982E0,8.447454E0,2.622407E0,1.9329885E0,4.3926096E0,5.5775256E0,2.8699286E0,1.5939984E0,1.0284084E0,2.2832413E0,2.1093686E0],"tree_param":{"num_deleted":"0","num_feature":"17","num_nodes":"19","size_leaf_vector":"1"}},{"base_weights":[-6.2679145E-3,2.5369108E-2,-1.9198649E-1,-8.7571524E-2,6.1756637E-2,3.24666E-2,-1.1948212E-1,-1.8100847E-1,1.23786055E-1,5.0280094E-2,-3.6982927E-1,-1.2498557E-1,1.9107762E-1,-1.4796448E-1,-1.983247E-2,1.08324654E-1,-7.417162E-3],"categories":[],"categories_nodes":[],"categories_segments":[],"categories_sizes":[],"default_left":[0,0,0,0,0,0,0,0,0,0,0,0,0,0,0,0,0],"id":47,"left_children":[1,3,5,-1,7,-1,-1,9,11,-1,13,-1,15,-1,-1,-1,-1],"loss_changes":[1.3653977E-1,2.4928193E-1,2.523312E-1,0E0,3.0543935E-1,0E0,0E0,3.4050286E-1,6.455946E-1,0E0,8.193576E-2,0E0,5.4185855E-1,0E0,0E0,0E0,0E0],"parents":[2147483647,0,0,1,1,2,2,4,4,7,7,8,8,10,10,12,12],"right_children":[2,4,6,-1,8,-1,-1,10,12,-1,14,-1,16,-1,-1,-1,-1],"split_conditions":[1.38042E5,8.3E-2,6.58E0,-8.7571524E-2,9.009E1,3.24666E-2,-1.1948212E-1,4.2E1,2.8E5,5.0280094E-2,1.36E2,-1.2498557E-1,1.46E-1,-1.4796448E-1,-1.983247E-2,1.08324654E-1,-7.417162E-3],"split_indices":[2,11,14,0,13,0,0,0,5,0,4,0,11,0,0,0,0],"split_type":[0,0,0,0,0,0,0,0,0,0,0,0,0,0,0,0,0],"sum_hessian":[2.1409565E1,1.903104E1,2.3785236E0,1.2355734E0,1.7795467E1,1.162348E0,1.2161756E0,3.2312372E0,1.456423E1,1.1747496E0,2.0564876E0,1.0378919E0,1.3526339E1,1.0187259E0,1.0377616E0,7.189424E0,6.336914E0],"tree_param":{"num_deleted":"0","num_feature":"17","num_nodes":"17","size_leaf_vector":"1"}},{"base_weights":[-1.8998744E-2,9.335995E-2,-7.005057E-2,-2.2155938E-1,2.689638E-1,-1.2630242E-1,9.8288685E-2,-1.1129973E-1,7.3186397E-3,-4.774336E-2,4.5138824E-1,4.361561E-2,-2.367475E-1,1.857597E-1,3.4702744E-3,3.2437518E-1,-1.7943713E-1,-4.8001945E-1,-3.5093673E-2,-9.499791E-3,1.5109701E-1,5.5851277E-2,-1.3766682E-1,-1.7208437E-2,-1.8289445E-1,1.4041418E-1,-7.049935E-2],"categories":[],"categories_nodes":[],"categories_segments":[],"categories_sizes":[],"default_left":[0,0,0,0,0,0,0,0,0,0,0,0,0,0,0,0,0,0,0,0,0,0,0,0,0,0,0],"id":48,"left_children":[1,3,5,7,9,11,-1,-1,-1,-1,13,15,17,-1,-1,19,21,23,25,-1,-1,-1,-1,-1,-1,-1,-1],"loss_changes":[1.3277929E-1,4.635235E-1,3.9267248E-1,1.25315E-1,4.733389E-1,2.8205365E-1,0E0,0E0,0E0,0E0,2.7814394E-1,4.6829045E-1,4.2127836E-1,0E0,0E0,2.2374052E-1,5.240522E-1,1.824807E-1,7.096536E-1,0E0,0E0,0E0,0E0,0E0,0E0,0E0,0E0],"parents":[2147483647,0,0,1,1,2,2,3,3,4,4,5,5,10,10,11,11,12,12,15,15,16,16,17,17,18,18],"right_children":[2,4,6,8,10,12,-1,-1,-1,-1,14,16,18,-1,-1,20,22,24,26,-1,-1,-1,-1,-1,-1,-1,-1],"split_conditions":[6E1,9.095E1,2.03E-1,2E0,2.4E1,7.154E3,9.8288685E-2,-1.1129973E-1,7.3186397E-3,-4.774336E-2,2E0,2.26E0,1.0787E4,1.857597E-1,3.4702744E-3,1.28E2,8.9E1,1.28E-1,1.2663E4,-9.499791E-3,1.5109701E-1,5.5851277E-2,-1.3766682E-1,-1.7208437E-2,-1.8289445E-1,1.4041418E-1,-7.049935E-2],"split_indices":[6,13,11,8,6,10,0,0,0,0,9,16,10,0,0,4,4,11,10,0,0,0,0,0,0,0,0],"split_type":[0,0,0,0,0,0,0,0,0,0,0,0,0,0,0,0,0,0,0,0,0,0,0,0,0,0,0],"sum_hessian":[2.1007812E1,6.3042393E0,1.4703573E1,2.1631868E0,4.1410527E0,1.34793215E1,1.2242515E0,1.0293565E0,1.1338302E0,1.2754583E0,2.8655944E0,5.548356E0,7.930966E0,1.7789885E0,1.0866058E0,2.2553113E0,3.2930446E0,2.9689088E0,4.962057E0,1.0310626E0,1.2242486E0,1.5712174E0,1.7218273E0,1.0354152E0,1.9334936E0,1.0295112E0,3.9325461E0],"tree_param":{"num_deleted":"0","num_feature":"17","num_nodes":"27","size_leaf_vector":"1"}},{"base_weights":[-1.0340595E-2,-1.2322696E-1,5.5953167E-2,6.348631E-2,-2.796531E-1,2.0256464E-1,-7.3696814E-2,1.2813085E-1,-1.7319702E-1,-4.1930044E-1,3.188718E-2,4.3029004E-1,-5.798158E-2,-2.503169E-1,8.704163E-2,5.1424287E-2,-1.16913274E-1,-1.4860073E-1,-4.489085E-2,4.4778804E-3,1.7839976E-1,6.123363E-2,-7.267353E-2,-1.3514529E-1,9.017066E-3,-6.439237E-2,2.7250257E-1,1.22173406E-1,7.864531E-3],"categories":[],"categories_nodes":[],"categories_segments":[],"categories_sizes":[],"default_left":[0,0,0,0,0,0,0,0,0,0,0,0,0,0,0,0,0,0,0,0,0,0,0,0,0,0,0,0,0],"id":49,"left_children":[1,3,5,7,9,11,13,-1,15,17,-1,19,21,23,25,-1,-1,-1,-1,-1,-1,-1,-1,-1,-1,-1,27,-1,-1],"loss_changes":[1.6672128E-1,2.5765643E-1,2.837571E-1,4.6636721E-1,2.954251E-1,4.345841E-1,2.556843E-1,0E0,3.2595193E-1,1.0496378E-4,0E0,2.5076205E-1,2.4751045E-1,2.483241E-1,3.41337E-1,0E0,0E0,0E0,0E0,0E0,0E0,0E0,0E0,0E0,0E0,0E0,1.0783905E-1,0E0,0E0],"parents":[2147483647,0,0,1,1,2,2,3,3,4,4,5,5,6,6,8,8,9,9,11,11,12,12,13,13,14,14,26,26],"right_children":[2,4,6,8,10,12,14,-1,16,18,-1,20,22,24,26,-1,-1,-1,-1,-1,-1,-1,-1,-1,-1,-1,28,-1,-1],"split_conditions":[1.17E-1,1.03E-1,9.5921E4,6E1,3.56E0,4.8E1,9.131E1,1.2813085E-1,9.152E1,1.04618E5,3.188718E-2,5.45E3,2.13E0,3.3E1,6.8E1,5.1424287E-2,-1.16913274E-1,-1.4860073E-1,-4.489085E-2,4.4778804E-3,1.7839976E-1,6.123363E-2,-7.267353E-2,-1.3514529E-1,9.017066E-3,-6.439237E-2,9.252E1,1.22173406E-1,7.864531E-3],"split_indices":[11,11,2,6,16,0,13,0,13,2,0,10,16,0,4,0,0,0,0,0,0,0,0,0,0,0,13,0,0],"split_type":[0,0,0,0,0,0,0,0,0,0,0,0,0,0,0,0,0,0,0,0,0,0,0,0,0,0,0,0,0],"sum_hessian":[2.0356705E1,7.21391E0,1.3142795E1,3.5594394E0,3.6544707E0,5.9040027E0,7.238792E0,1.0861914E0,2.473248E0,2.6200278E0,1.0344428E0,2.8027878E0,3.101215E0,3.183479E0,4.0553126E0,1.0346926E0,1.4385554E0,1.3909662E0,1.2290617E0,1.1039655E0,1.6988223E0,1.235764E0,1.8654509E0,1.5034163E0,1.6800629E0,1.4840008E0,2.571312E0,1.239601E0,1.3317109E0],"tree_param":{"num_deleted":"0","num_feature":"17","num_nodes":"29","size_leaf_vector":"1"}},{"base_weights":[-6.357787E-3,-4.512133E-2,1.3258518E-1,7.0554696E-2,-1.5766525E-1,-5.296396E-2,2.6297382E-1,-5.769428E-2,1.4396022E-1,-1.5854749E-1,-2.9595379E-2,1.0746763E-1,2.0080416E-3,1.4385338E-1,-2.2853209E-1,1.4386675E-1,-2.7641323E-1,-3.9866395E-2,1.08884685E-1,-1.5681596E-1,5.2156612E-2,1.2650304E-1,-7.271558E-2,1.1526696E-2,-1.3406104E-1],"categories":[],"categories_nodes":[],"categories_segments":[],"categories_sizes":[],"default_left":[0,0,0,0,0,0,0,0,0,0,0,0,0,0,0,0,0,0,0,0,0,0,0,0,0],"id":50,"left_children":[1,3,5,7,9,-1,11,13,-1,-1,15,-1,-1,17,19,21,23,-1,-1,-1,-1,-1,-1,-1,-1],"loss_changes":[1.1807004E-1,2.326714E-1,2.3964041E-1,5.044843E-1,4.086871E-1,0E0,8.9708835E-2,3.017419E-1,0E0,0E0,3.6945197E-1,0E0,0E0,3.02649E-1,6.3690597E-1,6.580418E-1,2.061024E-1,0E0,0E0,0E0,0E0,0E0,0E0,0E0,0E0],"parents":[2147483647,0,0,1,1,2,2,3,3,4,4,6,6,7,7,10,10,13,13,14,14,15,15,16,16],"right_children":[2,4,6,8,10,-1,12,14,-1,-1,16,-1,-1,18,20,22,24,-1,-1,-1,-1,-1,-1,-1,-1],"split_conditions":[1.48E2,1.2663E4,1E0,9.964E3,1.3339E4,-5.296396E-2,1.67E2,1.24E-1,1.4396022E-1,-1.5854749E-1,1.01E2,1.0746763E-1,2.0080416E-3,5.223E3,1.59E-1,2.1035E4,2.59E0,-3.9866395E-2,1.08884685E-1,-1.5681596E-1,5.2156612E-2,1.2650304E-1,-7.271558E-2,1.1526696E-2,-1.3406104E-1],"split_indices":[4,10,9,10,10,0,4,11,0,0,4,0,0,10,11,10,16,0,0,0,0,0,0,0,0],"split_type":[0,0,0,0,0,0,0,0,0,0,0,0,0,0,0,0,0,0,0,0,0,0,0,0,0],"sum_hessian":[1.9811224E1,1.6017714E1,3.793511E0,8.082929E0,7.934785E0,1.0203688E0,2.773142E0,6.8086395E0,1.2742888E0,1.234295E0,6.70049E0,1.7317255E0,1.0414166E0,3.1960363E0,3.6126032E0,4.1799555E0,2.5205345E0,1.5860959E0,1.6099403E0,1.9141275E0,1.6984757E0,2.3779275E0,1.8020278E0,1.157399E0,1.3631355E0],"tree_param":{"num_deleted":"0","num_feature":"17","num_nodes":"25","size_leaf_vector":"1"}},{"base_weights":[-7.78653E-3,-1.1246895E-1,5.3931035E-2,5.1915575E-2,-2.4685092E-1,1.2586214E-1,-1.7046209E-1,-6.580508E-2,2.3205987E-1,-3.7513116E-1,2.847263E-2,2.7947977E-1,-4.1525837E-2,4.5440227E-2,-1.2507397E-1,4.8672743E-3,1.021538E-1,-1.337266E-1,-3.783816E-2,-4.279188E-2,4.072644E-1,1.6285846E-1,-8.986462E-2,1.6410904E-1,4.922537E-2,9.340294E-2,-3.528988E-2],"categories":[],"categories_nodes":[],"categories_segments":[],"categories_sizes":[],"default_left":[0,0,0,0,0,0,0,0,0,0,0,0,0,0,0,0,0,0,0,0,0,0,0,0,0,0,0],"id":51,"left_children":[1,3,5,7,9,11,13,-1,15,17,-1,19,21,-1,-1,-1,-1,-1,-1,-1,23,25,-1,-1,-1,-1,-1],"loss_changes":[1.3599296E-1,1.84744E-1,2.3656857E-1,2.6234677E-1,2.309609E-1,2.8590494E-1,3.5352278E-1,0E0,6.671497E-2,4.3054223E-3,0E0,3.6511394E-1,3.639094E-1,0E0,0E0,0E0,0E0,0E0,0E0,0E0,6.7558944E-2,2.0247555E-1,0E0,0E0,0E0,0E0,0E0],"parents":[2147483647,0,0,1,1,2,2,3,3,4,4,5,5,6,6,8,8,9,9,11,11,12,12,20,20,21,21],"right_children":[2,4,6,8,10,12,14,-1,16,18,-1,20,22,-1,-1,-1,-1,-1,-1,-1,24,26,-1,-1,-1,-1,-1],"split_conditions":[1.17E-1,1.03E-1,6.1E1,3.4E1,3.41E0,1.02619E5,5.4E5,-6.580508E-2,8.9E-2,1.04618E5,2.847263E-2,4.0711E4,3.33E0,4.5440227E-2,-1.2507397E-1,4.8672743E-3,1.021538E-1,-1.337266E-1,-3.783816E-2,-4.279188E-2,1E0,1.9419E4,-8.986462E-2,1.6410904E-1,4.922537E-2,9.340294E-2,-3.528988E-2],"split_indices":[11,11,0,0,16,2,5,0,11,2,0,2,16,0,0,0,0,0,0,0,1,10,0,0,0,0,0],"split_type":[0,0,0,0,0,0,0,0,0,0,0,0,0,0,0,0,0,0,0,0,0,0,0,0,0,0,0],"sum_hessian":[1.9110281E1,6.782985E0,1.2327296E1,3.326937E0,3.4560485E0,9.667422E0,2.659874E0,1.240829E0,2.086108E0,2.441849E0,1.0141995E0,4.6918764E0,4.9755464E0,1.3204402E0,1.3394338E0,1.0821271E0,1.0039809E0,1.2867414E0,1.1551075E0,1.063267E0,3.6286092E0,2.9821534E0,1.9933928E0,1.5108005E0,2.1178088E0,1.8779992E0,1.1041542E0],"tree_param":{"num_deleted":"0","num_feature":"17","num_nodes":"27","size_leaf_vector":"1"}},{"base_weights":[-7.4155256E-3,-1.5125547E-1,4.679453E-2,-8.257082E-2,9.398352E-2,9.9546604E-2,-1.05256036E-1,2.0205788E-1,-9.495098E-3,9.9476166E-2,-3.745041E-2,-7.329386E-2,4.832047E-1,-1.0441268E-1,1.2367103E-1,4.9691625E-2,-7.4313544E-2,1.8921112E-1,1.9029949E-2,1.2582757E-1,-2.3881248E-3],"categories":[],"categories_nodes":[],"categories_segments":[],"categories_sizes":[],"default_left":[0,0,0,0,0,0,0,0,0,0,0,0,0,0,0,0,0,0,0,0,0],"id":52,"left_children":[1,-1,3,5,7,9,-1,11,13,-1,-1,15,17,-1,19,-1,-1,-1,-1,-1,-1],"loss_changes":[5.5236065E-1,0E0,1.2141723E-1,3.0406773E-1,1.597121E-1,2.5278848E-1,0E0,5.7316995E-1,4.1106418E-1,0E0,0E0,2.2346693E-1,1.8095529E-1,0E0,2.601452E-1,0E0,0E0,0E0,0E0,0E0,0E0],"parents":[2147483647,0,0,2,2,3,3,4,4,5,5,7,7,8,8,11,11,12,12,14,14],"right_children":[2,-1,4,6,8,10,-1,12,14,-1,-1,16,18,-1,20,-1,-1,-1,-1,-1,-1],"split_conditions":[5.99E2,-1.5125547E-1,1.08E-1,1.03E-1,9.6347E4,9.152E1,-1.05256036E-1,6.4661E4,1E0,9.9476166E-2,-3.745041E-2,4.315E3,5.3E1,-1.0441268E-1,1.28E-1,4.9691625E-2,-7.4313544E-2,1.8921112E-1,1.9029949E-2,1.2582757E-1,-2.3881248E-3],"split_indices":[3,0,11,11,2,13,0,2,9,0,0,10,0,0,11,0,0,0,0,0,0],"split_type":[0,0,0,0,0,0,0,0,0,0,0,0,0,0,0,0,0,0,0,0,0],"sum_hessian":[1.8634966E1,1.0167851E0,1.7618181E1,4.5085406E0,1.310964E1,3.0601666E0,1.448374E0,5.9464455E0,7.1631947E0,1.2695234E0,1.7906431E0,3.3776855E0,2.56876E0,1.5666695E0,5.596525E0,1.4464918E0,1.9311938E0,1.5290061E0,1.0397538E0,1.0503043E0,4.546221E0],"tree_param":{"num_deleted":"0","num_feature":"17","num_nodes":"21","size_leaf_vector":"1"}},{"base_weights":[-4.4745705E-3,1.0853259E-1,-5.1110633E-2,-6.0007375E-2,2.7679724E-1,3.912347E-2,-2.2886388E-1,3.395271E-3,3.6476916E-1,8.000325E-2,-2.2543058E-2,-1.293556E-1,-2.3977544E-2,1.0301369E-2,1.5148567E-1,9.6686415E-2,-8.748056E-2,-8.660834E-2,8.191219E-2,-2.052753E-2,9.425675E-2],"categories":[],"categories_nodes":[],"categories_segments":[],"categories_sizes":[],"default_left":[0,0,0,0,0,0,0,0,0,0,0,0,0,0,0,0,0,0,0,0,0],"id":53,"left_children":[1,3,5,-1,7,9,11,-1,13,-1,15,-1,17,-1,-1,19,-1,-1,-1,-1,-1],"loss_changes":[1.0607072E-1,3.612828E-1,2.3642099E-1,0E0,9.471798E-2,1.4999361E-1,1.9365656E-1,0E0,1.2843043E-1,0E0,3.167496E-1,0E0,3.5432616E-1,0E0,0E0,2.7230623E-1,0E0,0E0,0E0,0E0,0E0],"parents":[2147483647,0,0,1,1,2,2,4,4,5,5,6,6,8,8,10,10,12,12,15,15],"right_children":[2,4,6,-1,8,10,12,-1,14,-1,16,-1,18,-1,-1,20,-1,-1,-1,-1,-1],"split_conditions":[1E0,9.095E1,5.24E0,-6.0007375E-2,5.4113E4,4.8E1,9.258E1,3.395271E-3,9.182E1,8.000325E-2,1.3038E4,-1.293556E-1,1.05858E5,1.0301369E-2,1.5148567E-1,1.12E2,-8.748056E-2,-8.660834E-2,8.191219E-2,-2.052753E-2,9.425675E-2],"split_indices":[7,13,15,0,2,6,13,0,13,0,10,0,2,0,0,4,0,0,0,0,0],"split_type":[0,0,0,0,0,0,0,0,0,0,0,0,0,0,0,0,0,0,0,0,0],"sum_hessian":[1.8073921E1,4.892159E0,1.3181763E1,1.6597762E0,3.2323825E0,9.260627E0,3.9211357E0,1.085434E0,2.1469486E0,1.2656772E0,7.99495E0,1.4171838E0,2.503952E0,1.0103533E0,1.1365952E0,5.9839153E0,2.0110347E0,1.3387856E0,1.1651663E0,3.7912745E0,2.1926405E0],"tree_param":{"num_deleted":"0","num_feature":"17","num_nodes":"21","size_leaf_vector":"1"}},{"base_weights":[-1.0117457E-3,-9.717192E-2,4.2618807E-2,4.37784E-2,-2.5521335E-1,1.0518158E-1,-1.2149153E-1,-5.8519606E-2,6.0840264E-2,-1.0960868E-1,-4.5963195E-3,2.3223862E-1,-6.573636E-2,4.951719E-2,-8.76093E-2,-4.0400058E-2,4.0446278E-1,6.528231E-2,-2.1433395E-1,1.9833068E-3,1.5549901E-1,8.606191E-3,-9.736565E-2],"categories":[],"categories_nodes":[],"categories_segments":[],"categories_sizes":[],"default_left":[0,0,0,0,0,0,0,0,0,0,0,0,0,0,0,0,0,0,0,0,0,0,0],"id":54,"left_children":[1,3,5,7,9,11,13,-1,-1,-1,-1,15,17,-1,-1,-1,19,-1,21,-1,-1,-1,-1],"loss_changes":[8.270348E-2,1.4815396E-1,1.5216579E-1,1.9543444E-1,7.4870974E-2,2.4035442E-1,2.539869E-1,0E0,0E0,0E0,0E0,4.4409138E-1,2.65541E-1,0E0,0E0,0E0,1.9798744E-1,0E0,1.1415441E-1,0E0,0E0,0E0,0E0],"parents":[2147483647,0,0,1,1,2,2,3,3,4,4,5,5,6,6,11,11,12,12,16,16,18,18],"right_children":[2,4,6,8,10,12,14,-1,-1,-1,-1,16,18,-1,-1,-1,20,-1,22,-1,-1,-1,-1],"split_conditions":[1.12E-1,1.03E-1,3E0,3.4E1,3E0,1E0,2.26E0,-5.8519606E-2,6.0840264E-2,-1.0960868E-1,-4.5963195E-3,2.26E0,1.92E0,4.951719E-2,-8.76093E-2,-4.0400058E-2,6.5437E4,6.528231E-2,1.41E-1,1.9833068E-3,1.5549901E-1,8.606191E-3,-9.736565E-2],"split_indices":[11,11,9,0,7,1,16,0,0,0,0,16,16,0,0,0,2,0,11,0,0,0,0],"split_type":[0,0,0,0,0,0,0,0,0,0,0,0,0,0,0,0,0,0,0,0,0,0,0],"sum_hessian":[1.7725237E1,5.1492724E0,1.2575964E1,3.1039698E0,2.0453024E0,9.364915E0,3.211049E0,1.15003E0,1.9539399E0,1.0432552E0,1.0020472E0,5.165908E0,4.199007E0,1.2100348E0,2.0010142E0,1.7199045E0,3.4460034E0,1.2847853E0,2.9142218E0,1.00224E0,2.4437635E0,1.1401081E0,1.7741137E0],"tree_param":{"num_deleted":"0","num_feature":"17","num_nodes":"23","size_leaf_vector":"1"}},{"base_weights":[-3.2667345E-3,-5.491369E-2,2.0036643E-2,1.9326447E-1,-4.0552385E-2,-4.1285094E-2,3.449576E-1,-1.0118856E-1,2.2528209E-2,1.3966402E-1,2.2946406E-2,-7.860155E-2,7.790062E-2,1.0449346E-1,-6.685715E-3],"categories":[],"categories_nodes":[],"categories_segments":[],"categories_sizes":[],"default_left":[0,0,0,0,0,0,0,0,0,0,0,0,0,0,0],"id":55,"left_children":[1,-1,3,5,7,-1,9,-1,11,-1,-1,-1,13,-1,-1],"loss_changes":[8.045665E-2,0E0,1.8759957E-1,2.7894032E-1,2.6059335E-1,0E0,7.599163E-2,0E0,2.1079063E-1,0E0,0E0,0E0,3.0267787E-1,0E0,0E0],"parents":[2147483647,0,0,2,2,3,3,4,4,6,6,8,8,12,12],"right_children":[2,-1,4,6,8,-1,10,-1,12,-1,-1,-1,14,-1,-1],"split_conditions":[8.7E-2,-5.491369E-2,5.677E3,2.9016E4,7.904E3,-4.1285094E-2,1E0,-1.0118856E-1,3.58E0,1.3966402E-1,2.2946406E-2,-7.860155E-2,8.9561E4,1.0449346E-1,-6.685715E-3],"split_indices":[11,0,10,2,10,0,1,0,15,0,0,0,2,0,0],"split_type":[0,0,0,0,0,0,0,0,0,0,0,0,0,0,0],"sum_hessian":[1.7329119E1,1.2019008E0,1.6127216E1,3.611617E0,1.25156E1,1.1644495E0,2.4471679E0,1.432027E0,1.1083573E1,1.1821171E0,1.2650506E0,1.1976595E0,9.885914E0,2.0030053E0,7.8829083E0],"tree_param":{"num_deleted":"0","num_feature":"17","num_nodes":"15","size_leaf_vector":"1"}},{"base_weights":[-2.8784513E-3,1.0678139E-1,-3.4676448E-2,-3.538875E-2,9.4816186E-2,6.396038E-2,-7.9479724E-2,-2.5197455E-1,6.859049E-2,-3.285101E-1,2.1462187E-2,1.753507E-1,-6.579915E-2,1.2424426E-2,-1.3529432E-1,9.007398E-2,-6.675473E-2],"categories":[],"categories_nodes":[],"categories_segments":[],"categories_sizes":[],"default_left":[0,0,0,0,0,0,0,0,0,0,0,0,0,0,0,0,0],"id":56,"left_children":[1,3,5,-1,-1,-1,7,9,11,13,-1,15,-1,-1,-1,-1,-1],"loss_changes":[6.679381E-2,2.4010226E-1,1.8109998E-1,0E0,0E0,0E0,3.5562554E-1,1.8030313E-1,2.8172782E-1,2.5879496E-1,0E0,3.8131368E-1,0E0,0E0,0E0,0E0,0E0],"parents":[2147483647,0,0,1,1,2,2,6,6,7,7,8,8,9,9,11,11],"right_children":[2,4,6,-1,-1,-1,8,10,12,14,-1,16,-1,-1,-1,-1,-1],"split_conditions":[2.8E1,6.1E5,4.57E0,-3.538875E-2,9.4816186E-2,6.396038E-2,4.5E1,1.92E-1,1E0,2.02E0,2.1462187E-2,1.78E-1,-6.579915E-2,1.2424426E-2,-1.3529432E-1,9.007398E-2,-6.675473E-2],"split_indices":[0,5,14,0,0,0,0,11,12,16,0,11,0,0,0,0,0],"split_type":[0,0,0,0,0,0,0,0,0,0,0,0,0,0,0,0,0],"sum_hessian":[1.7093397E1,3.312311E0,1.3781085E1,1.8075026E0,1.5048084E0,1.5342294E0,1.2246856E1,5.332741E0,6.914115E0,4.3000236E0,1.0327173E0,5.3290834E0,1.5850315E0,1.2341372E0,3.0658863E0,4.242623E0,1.0864607E0],"tree_param":{"num_deleted":"0","num_feature":"17","num_nodes":"17","size_leaf_vector":"1"}},{"base_weights":[-3.3165764E-3,-2.5905063E-2,4.4736095E-2,-6.5369934E-2,9.998713E-2,1.2209591E-1,-1.6031441E-1,9.102952E-2,-3.9983734E-2,2.549378E-1,-2.8781658E-2,-4.8949476E-3,-3.494018E-1,5.560961E-3,1.1469069E-1,7.692157E-2,-6.717141E-2,-1.240052E-4,-1.5344352E-1],"categories":[],"categories_nodes":[],"categories_segments":[],"categories_sizes":[],"default_left":[0,0,0,0,0,0,0,0,0,0,0,0,0,0,0,0,0,0,0],"id":57,"left_children":[1,3,-1,5,7,9,11,-1,-1,13,-1,15,17,-1,-1,-1,-1,-1,-1],"loss_changes":[6.497589E-2,8.756789E-2,0E0,2.5134712E-1,2.4392955E-1,1.6770105E-1,2.6502293E-1,0E0,0E0,9.36757E-2,0E0,4.005374E-1,2.305899E-1,0E0,0E0,0E0,0E0,0E0,0E0],"parents":[2147483647,0,0,1,1,3,3,4,4,5,5,6,6,9,9,11,11,12,12],"right_children":[2,4,-1,6,8,10,12,-1,-1,14,-1,16,18,-1,-1,-1,-1,-1,-1],"split_conditions":[1.63E2,1.29128E5,4.4736095E-2,1.92E0,6.06E0,5.56E5,1.06E2,9.102952E-2,-3.9983734E-2,3.1E5,-2.8781658E-2,4.1E1,1E0,5.560961E-3,1.1469069E-1,7.692157E-2,-6.717141E-2,-1.240052E-4,-1.5344352E-1],"split_indices":[4,2,0,16,14,5,4,0,0,5,0,0,1,0,0,0,0,0,0],"split_type":[0,0,0,0,0,0,0,0,0,0,0,0,0,0,0,0,0,0,0],"sum_hessian":[1.6748259E1,1.530969E1,1.4385686E0,1.202182E1,3.287871E0,3.9455144E0,8.076305E0,1.5955267E0,1.6923442E0,2.346569E0,1.5989451E0,4.995866E0,3.0804398E0,1.2226843E0,1.1238849E0,2.2001374E0,2.7957282E0,1.2948587E0,1.7855812E0],"tree_param":{"num_deleted":"0","num_feature":"17","num_nodes":"19","size_leaf_vector":"1"}},{"base_weights":[-7.0854614E-5,-8.903934E-2,5.3895928E-2,-1.8764147E-1,7.1955614E-2,1.3799532E-1,-2.216314E-1,-1.0009807E-2,-1.2458719E-1,-4.849175E-2,2.2294156E-1,-8.959637E-2,-1.1899755E-2,6.56406E-2,-1.8220855E-1,3.0160317E-1,-4.540175E-2,6.4941426E-3,-8.879869E-2,1.5823269E-1,3.2059927E-2],"categories":[],"categories_nodes":[],"categories_segments":[],"categories_sizes":[],"default_left":[0,0,0,0,0,0,0,0,0,0,0,0,0,0,0,0,0,0,0,0,0],"id":58,"left_children":[1,3,5,7,-1,9,11,13,-1,-1,15,-1,-1,-1,17,19,-1,-1,-1,-1,-1],"loss_changes":[8.844362E-2,2.705396E-1,2.962826E-1,2.348935E-1,0E0,2.753265E-1,3.1113908E-2,2.1107613E-1,0E0,0E0,2.7367085E-1,0E0,0E0,0E0,7.657549E-2,2.3979521E-1,0E0,0E0,0E0,0E0,0E0],"parents":[2147483647,0,0,1,1,2,2,3,3,5,5,6,6,7,7,10,10,14,14,15,15],"right_children":[2,4,6,8,-1,10,12,14,-1,-1,16,-1,-1,-1,18,20,-1,-1,-1,-1,-1],"split_conditions":[5.48E0,1.30248E5,5E0,9.9323E4,7.1955614E-2,3.974E3,6.4E5,3.65E0,-1.2458719E-1,-4.849175E-2,1.39147E5,-8.959637E-2,-1.1899755E-2,6.56406E-2,9.1E1,5.9E1,-4.540175E-2,6.4941426E-3,-8.879869E-2,1.5823269E-1,3.2059927E-2],"split_indices":[14,2,8,2,0,10,5,15,0,0,2,0,0,0,4,4,0,0,0,0,0],"split_type":[0,0,0,0,0,0,0,0,0,0,0,0,0,0,0,0,0,0,0,0,0],"sum_hessian":[1.6421118E1,5.9546E0,1.0466518E1,4.9115753E0,1.0430248E0,8.401333E0,2.0651855E0,3.3452725E0,1.5663025E0,1.656268E0,6.7450647E0,1.0004435E0,1.0647421E0,1.3202858E0,2.0249867E0,5.734119E0,1.0109457E0,1.0154717E0,1.0095152E0,1.8639638E0,3.870155E0],"tree_param":{"num_deleted":"0","num_feature":"17","num_nodes":"21","size_leaf_vector":"1"}},{"base_weights":[-4.0665246E-3,-1.0010059E-1,4.189184E-2,1.330783E-1,-2.6981446E-1,-4.982589E-2,2.0636089E-1,-2.297632E-2,8.1020504E-2,-1.0742414E-1,-8.477202E-3,3.7158385E-2,-9.948212E-2,-8.563448E-2,1.4314167E-1,-6.652661E-2,9.060651E-2,-8.7703265E-2,5.0214674E-2,-8.21869E-2,4.0918052E-2],"categories":[],"categories_nodes":[],"categories_segments":[],"categories_sizes":[],"default_left":[0,0,0,0,0,0,0,0,0,0,0,0,0,0,0,0,0,0,0,0,0],"id":59,"left_children":[1,3,5,7,9,11,13,-1,-1,-1,-1,15,-1,17,-1,19,-1,-1,-1,-1,-1],"loss_changes":[7.950678E-2,2.6615068E-1,1.9500884E-1,1.10311545E-1,6.871933E-2,2.2476134E-1,4.0287673E-1,0E0,0E0,0E0,0E0,2.2666626E-1,0E0,2.0849638E-1,0E0,2.9940125E-1,0E0,0E0,0E0,0E0,0E0],"parents":[2147483647,0,0,1,1,2,2,3,3,4,4,5,5,6,6,11,11,13,13,15,15],"right_children":[2,4,6,8,10,12,14,-1,-1,-1,-1,16,-1,18,-1,20,-1,-1,-1,-1,-1],"split_conditions":[6.7E1,4E0,1.6E-1,5.65E0,3.06E0,1.47E-1,7.2E1,-2.297632E-2,8.1020504E-2,-1.0742414E-1,-8.477202E-3,6.8E5,-9.948212E-2,1.8762E4,1.4314167E-1,3E0,9.060651E-2,-8.7703265E-2,5.0214674E-2,-8.21869E-2,4.0918052E-2],"split_indices":[4,8,11,14,16,11,6,0,0,0,0,5,0,10,0,7,0,0,0,0,0],"split_type":[0,0,0,0,0,0,0,0,0,0,0,0,0,0,0,0,0,0,0,0,0],"sum_hessian":[1.6064056E1,4.8181124E0,1.1245944E1,2.120505E0,2.6976075E0,7.6672688E0,3.578675E0,1.0122147E0,1.1082904E0,1.622394E0,1.0752136E0,6.5220714E0,1.145197E0,2.0508611E0,1.5278139E0,5.225351E0,1.2967207E0,1.0431739E0,1.0076872E0,2.4108515E0,2.8144994E0],"tree_param":{"num_deleted":"0","num_feature":"17","num_nodes":"21","size_leaf_vector":"1"}},{"base_weights":[-2.8680598E-3,2.399274E-2,-4.371055E-2,-1.8635942E-2,7.394377E-2,-1.5011066E-1,6.965793E-2,5.862298E-4,-1.0559479E-1,1.71477E-1,-7.299206E-2,5.701103E-2,-5.4856993E-2,9.410965E-2,-2.5746977E-2,-6.560386E-2,3.0416587E-2],"categories":[],"categories_nodes":[],"categories_segments":[],"categories_sizes":[],"default_left":[0,0,0,0,0,0,0,0,0,0,0,0,0,0,0,0,0],"id":60,"left_children":[1,3,-1,5,-1,7,9,11,-1,13,15,-1,-1,-1,-1,-1,-1],"loss_changes":[6.756284E-2,1.4604387E-1,0E0,1.665405E-1,0E0,1.7418411E-1,1.3926968E-1,1.8324502E-1,0E0,2.2419122E-1,1.3233013E-1,0E0,0E0,0E0,0E0,0E0,0E0],"parents":[2147483647,0,0,1,1,3,3,5,5,6,6,7,7,9,9,10,10],"right_children":[2,4,-1,6,-1,8,10,12,-1,14,16,-1,-1,-1,-1,-1,-1],"split_conditions":[1.37655E5,1.29128E5,-4.371055E-2,5.48E0,7.394377E-2,9.9323E4,9.245E1,4.68E0,-1.0559479E-1,3.68E0,5.46E0,5.701103E-2,-5.4856993E-2,9.410965E-2,-2.5746977E-2,-6.560386E-2,3.0416587E-2],"split_indices":[2,2,0,14,0,2,13,14,0,16,15,0,0,0,0,0,0],"split_type":[0,0,0,0,0,0,0,0,0,0,0,0,0,0,0,0,0],"sum_hessian":[1.5698787E1,1.3914163E1,1.7846236E0,1.2445775E1,1.4683877E0,4.718913E0,7.7268624E0,3.2728415E0,1.4460716E0,4.3907795E0,3.3360825E0,1.5923734E0,1.6804682E0,2.6865857E0,1.7041941E0,1.6791719E0,1.6569105E0],"tree_param":{"num_deleted":"0","num_feature":"17","num_nodes":"17","size_leaf_vector":"1"}},{"base_weights":[-4.4218376E-3,-9.4279036E-2,3.8880795E-2,-2.4667156E-1,4.0758613E-2,1.4994307E-1,-8.804824E-2,1.859006E-2,-1.1778936E-1,2.822416E-1,-5.498771E-2,7.288501E-2,-2.1815129E-1,8.919216E-2,1.5476184E-1,-3.2354972E-1,2.2878924E-2,8.3206E-2,-6.350174E-2,7.95105E-3,-1.5004814E-1],"categories":[],"categories_nodes":[],"categories_segments":[],"categories_sizes":[],"default_left":[0,0,0,0,0,0,0,0,0,0,0,0,0,0,0,0,0,0,0,0,0],"id":61,"left_children":[1,3,5,7,-1,9,11,-1,-1,13,-1,-1,15,17,-1,19,-1,-1,-1,-1,-1],"loss_changes":[6.7754544E-2,2.316052E-1,1.7986648E-1,1.9340903E-1,0E0,3.460279E-1,3.1772462E-1,0E0,0E0,1.8726042E-1,0E0,0E0,1.7795636E-1,2.8747472E-1,0E0,2.4992824E-1,0E0,0E0,0E0,0E0,0E0],"parents":[2147483647,0,0,1,1,2,2,3,3,5,5,6,6,9,9,12,12,13,13,15,15],"right_children":[2,4,6,8,-1,10,12,-1,-1,14,-1,-1,16,18,-1,20,-1,-1,-1,-1,-1],"split_conditions":[6.7E1,1E0,1E0,3.8E1,4.0758613E-2,3E0,1.92E0,1.859006E-2,-1.1778936E-1,1.6E-1,-5.498771E-2,7.288501E-2,1.44E2,1.17817E5,1.5476184E-1,1.06E2,2.2878924E-2,8.3206E-2,-6.350174E-2,7.95105E-3,-1.5004814E-1],"split_indices":[4,1,1,4,0,9,16,0,0,11,0,0,4,2,0,4,0,0,0,0,0],"split_type":[0,0,0,0,0,0,0,0,0,0,0,0,0,0,0,0,0,0,0,0,0],"sum_hessian":[1.5470837E1,4.648185E0,1.0822651E1,2.7532425E0,1.8949423E0,5.6753945E0,5.147257E0,1.0687573E0,1.6844853E0,4.1720614E0,1.503333E0,1.2076019E0,3.9396548E0,3.0410264E0,1.1310353E0,2.8282127E0,1.111442E0,1.9190165E0,1.1220099E0,1.2334243E0,1.5947886E0],"tree_param":{"num_deleted":"0","num_feature":"17","num_nodes":"21","size_leaf_vector":"1"}},{"base_weights":[-2.403454E-3,8.359793E-2,-4.3908834E-2,-4.563652E-2,2.1244928E-1,5.4637592E-2,-9.5738284E-2,1.1043223E-1,-2.2809846E-2,-2.8714153E-1,-5.593787E-3,-1.4811931E-2,-1.14344336E-1,1.4447261E-1,-1.5909742E-1,2.6362839E-3,7.69671E-2,-9.4324924E-2,-2.4205532E-3],"categories":[],"categories_nodes":[],"categories_segments":[],"categories_sizes":[],"default_left":[0,0,0,0,0,0,0,0,0,0,0,0,0,0,0,0,0,0,0],"id":62,"left_children":[1,3,5,-1,7,-1,9,-1,-1,11,13,-1,-1,15,17,-1,-1,-1,-1],"loss_changes":[6.1074395E-2,2.0177343E-1,1.5219021E-1,0E0,2.0871018E-1,0E0,1.7114669E-1,0E0,0E0,5.2390546E-2,2.0327504E-1,0E0,0E0,6.5903336E-2,9.938354E-2,0E0,0E0,0E0,0E0],"parents":[2147483647,0,0,1,1,2,2,4,4,6,6,9,9,10,10,13,13,14,14],"right_children":[2,4,6,-1,8,-1,10,-1,-1,12,14,-1,-1,16,18,-1,-1,-1,-1],"split_conditions":[6E1,9.095E1,3.65E0,-4.563652E-2,1.06E2,5.4637592E-2,5.26E0,1.1043223E-1,-2.2809846E-2,4E1,5.14E0,-1.4811931E-2,-1.14344336E-1,2E0,3.9E5,2.6362839E-3,7.69671E-2,-9.4324924E-2,-2.4205532E-3],"split_indices":[6,13,15,0,4,0,14,0,0,0,15,0,0,9,5,0,0,0,0],"split_type":[0,0,0,0,0,0,0,0,0,0,0,0,0,0,0,0,0,0,0],"sum_hessian":[1.5081633E1,4.57918E0,1.0502454E1,1.5546029E0,3.0245767E0,1.4900856E0,9.012368E0,1.7852718E0,1.239305E0,2.1858401E0,6.8265276E0,1.0515027E0,1.1343374E0,3.4816606E0,3.3448672E0,2.0628529E0,1.4188079E0,1.1156731E0,2.229194E0],"tree_param":{"num_deleted":"0","num_feature":"17","num_nodes":"19","size_leaf_vector":"1"}},{"base_weights":[-4.8050308E-3,-3.861517E-2,1.10300645E-1,5.8926E-2,-1.372908E-1,-2.162138E-2,7.8283295E-2,-7.780825E-2,1.0129879E-1,-1.1680936E-1,-6.32547E-3,8.2080565E-2,-2.0437783E-1,1.1972394E-1,-6.233186E-2,6.5970734E-2,-2.742459E-2,-1.1011399E-1,1.6261982E-2,1.1388698E-1,-6.55989E-2],"categories":[],"categories_nodes":[],"categories_segments":[],"categories_sizes":[],"default_left":[0,0,0,0,0,0,0,0,0,0,0,0,0,0,0,0,0,0,0,0,0],"id":63,"left_children":[1,3,5,7,9,-1,-1,11,-1,-1,13,15,17,19,-1,-1,-1,-1,-1,-1,-1],"loss_changes":[6.5927915E-2,1.3310844E-1,1.2477127E-1,3.018953E-1,2.2061422E-1,0E0,0E0,1.314073E-1,0E0,0E0,1.6360371E-1,9.700816E-2,1.6493973E-1,4.3435863E-1,0E0,0E0,0E0,0E0,0E0,0E0,0E0],"parents":[2147483647,0,0,1,1,2,2,3,3,4,4,7,7,10,10,11,11,12,12,13,13],"right_children":[2,4,6,8,10,-1,-1,12,-1,-1,14,16,18,20,-1,-1,-1,-1,-1,-1,-1],"split_conditions":[1.48E2,1.2663E4,2E0,9.084E3,1.3992E4,-2.162138E-2,7.8283295E-2,1.24E-1,1.0129879E-1,-1.1680936E-1,1.07E2,9.152E1,1.59E-1,2.1035E4,-6.233186E-2,6.5970734E-2,-2.742459E-2,-1.1011399E-1,1.6261982E-2,1.1388698E-1,-6.55989E-2],"split_indices":[4,10,9,10,10,0,0,11,0,0,4,13,11,10,0,0,0,0,0,0,0],"split_type":[0,0,0,0,0,0,0,0,0,0,0,0,0,0,0,0,0,0,0,0,0],"sum_hessian":[1.4846038E1,1.1989013E1,2.8570242E0,6.2317452E0,5.757268E0,1.5283519E0,1.3286724E0,4.664452E0,1.5672932E0,1.2938716E0,4.463396E0,2.2162616E0,2.4481905E0,2.9950306E0,1.4683657E0,1.0860468E0,1.1302147E0,1.2453358E0,1.2028546E0,1.6250463E0,1.3699844E0],"tree_param":{"num_deleted":"0","num_feature":"17","num_nodes":"21","size_leaf_vector":"1"}},{"base_weights":[-5.1829005E-3,-1.5060665E-1,6.402792E-2,-2.5906736E-2,9.462704E-2,1.7417511E-1,4.2444454E-3,3.350567E-1,-4.5403153E-2,-1.9519596E-1,1.3914798E-1,7.0050717E-3,1.2946343E-1,1.1634086E-2,-9.6767694E-2,9.685928E-2,-1.6332155E-2],"categories":[],"categories_nodes":[],"categories_segments":[],"categories_sizes":[],"default_left":[0,0,0,0,0,0,0,0,0,0,0,0,0,0,0,0,0],"id":64,"left_children":[1,-1,3,-1,5,7,9,11,-1,13,15,-1,-1,-1,-1,-1,-1],"loss_changes":[5.6505615E-1,0E0,7.4847296E-2,0E0,8.925499E-2,3.9805597E-1,2.123887E-1,1.3278186E-1,0E0,1.0768897E-1,1.8439546E-1,0E0,0E0,0E0,0E0,0E0,0E0],"parents":[2147483647,0,0,2,2,4,4,5,5,6,6,7,7,9,9,10,10],"right_children":[2,-1,4,-1,6,8,10,12,-1,14,16,-1,-1,-1,-1,-1,-1],"split_conditions":[5.99E2,-1.5060665E-1,4.0711E4,-2.5906736E-2,1.2663E4,5.3E1,6.31E5,5.26E0,-4.5403153E-2,1E0,6E1,7.0050717E-3,1.2946343E-1,1.1634086E-2,-9.6767694E-2,9.685928E-2,-1.6332155E-2],"split_indices":[3,0,2,0,10,0,5,14,0,9,6,0,0,0,0,0,0],"split_type":[0,0,0,0,0,0,0,0,0,0,0,0,0,0,0,0,0],"sum_hessian":[1.4497661E1,1.0080091E0,1.3489652E1,1.9726443E0,1.1517007E1,5.632559E0,5.8844485E0,3.7499278E0,1.8826308E0,2.1939697E0,3.6904788E0,1.1799806E0,2.569947E0,1.0184703E0,1.1754994E0,1.5508908E0,2.139588E0],"tree_param":{"num_deleted":"0","num_feature":"17","num_nodes":"17","size_leaf_vector":"1"}},{"base_weights":[-9.784699E-3,-9.8394245E-2,3.3984225E-2,3.1132123E-2,-2.394341E-1,1.3331404E-1,-7.815102E-2,-3.570659E-3,-9.896527E-2,2.4606565E-1,-4.5867033E-2,6.797701E-2,-2.0366934E-1,6.594159E-2,1.3891733E-1,1.6105385E-2,-3.081232E-1,6.986311E-2,-5.6908086E-2,-1.16721965E-1,-2.4182487E-2],"categories":[],"categories_nodes":[],"categories_segments":[],"categories_sizes":[],"default_left":[0,0,0,0,0,0,0,0,0,0,0,0,0,0,0,0,0,0,0,0,0],"id":65,"left_children":[1,3,5,-1,7,9,11,-1,-1,13,-1,-1,15,17,-1,-1,19,-1,-1,-1,-1],"loss_changes":[6.1967675E-2,1.7467214E-1,1.3139465E-1,0E0,6.599605E-2,2.3540428E-1,2.654084E-1,0E0,0E0,1.5629712E-1,0E0,0E0,1.3983613E-1,2.0539905E-1,0E0,0E0,3.1455547E-2,0E0,0E0,0E0,0E0],"parents":[2147483647,0,0,1,1,2,2,4,4,5,5,6,6,9,9,12,12,13,13,16,16],"right_children":[2,4,6,-1,8,10,12,-1,-1,14,-1,-1,16,18,-1,-1,20,-1,-1,-1,-1],"split_conditions":[6.7E1,4E0,1E0,3.1132123E-2,7.721E3,3E0,1.92E0,-3.570659E-3,-9.896527E-2,1.58E-1,-4.5867033E-2,6.797701E-2,6E1,1.18563E5,1.3891733E-1,1.6105385E-2,4.2E1,6.986311E-2,-5.6908086E-2,-1.16721965E-1,-2.4182487E-2],"split_indices":[4,8,1,0,10,9,16,0,0,11,0,0,6,2,0,0,0,0,0,0,0],"split_type":[0,0,0,0,0,0,0,0,0,0,0,0,0,0,0,0,0,0,0,0,0],"sum_hessian":[1.4115683E1,4.2544904E0,9.861193E0,1.8569471E0,2.3975432E0,5.1290193E0,4.732173E0,1.003863E0,1.3936801E0,3.7800813E0,1.3489382E0,1.1455944E0,3.5865786E0,2.7779818E0,1.0020994E0,1.1757659E0,2.4108126E0,1.7344037E0,1.043578E0,1.2543976E0,1.1564151E0],"tree_param":{"num_deleted":"0","num_feature":"17","num_nodes":"21","size_leaf_vector":"1"}},{"base_weights":[-8.363027E-3,-4.2602573E-2,1.0632473E-1,3.3426214E-2,-1.182361E-1,-1.5606699E-2,6.960238E-2,-8.555042E-2,8.553537E-2,-2.7078703E-1,2.4757965E-2,2.7437018E-2,-1.7062815E-1,-1.5737932E-2,-1.08195804E-1,5.5835295E-2,-5.3673837E-2,3.40396E-2,-9.752337E-2],"categories":[],"categories_nodes":[],"categories_segments":[],"categories_sizes":[],"default_left":[0,0,0,0,0,0,0,0,0,0,0,0,0,0,0,0,0,0,0],"id":66,"left_children":[1,3,5,7,9,-1,-1,11,-1,13,15,-1,17,-1,-1,-1,-1,-1,-1],"loss_changes":[6.284426E-2,7.3818356E-2,8.571007E-2,2.2918108E-1,1.4437601E-1,0E0,0E0,9.71192E-2,0E0,4.263507E-2,1.7047003E-1,0E0,2.1260376E-1,0E0,0E0,0E0,0E0,0E0,0E0],"parents":[2147483647,0,0,1,1,2,2,3,3,4,4,7,7,9,9,10,10,12,12],"right_children":[2,4,6,8,10,-1,-1,12,-1,14,16,-1,18,-1,-1,-1,-1,-1,-1],"split_conditions":[1.48E2,1.2663E4,2E0,9.084E3,6.31E5,-1.5606699E-2,6.960238E-2,6.6E1,8.553537E-2,2.02E0,9.9E1,2.7437018E-2,1.8E0,-1.5737932E-2,-1.08195804E-1,5.5835295E-2,-5.3673837E-2,3.40396E-2,-9.752337E-2],"split_indices":[4,10,9,10,5,0,0,4,0,16,4,0,16,0,0,0,0,0,0],"split_type":[0,0,0,0,0,0,0,0,0,0,0,0,0,0,0,0,0,0,0],"sum_hessian":[1.3850185E1,1.1149949E1,2.700236E0,5.838743E0,5.311206E0,1.454194E0,1.246042E0,4.412852E0,1.4258914E0,2.1373327E0,3.1738734E0,1.408156E0,3.004696E0,1.0850285E0,1.052304E0,1.818967E0,1.3549066E0,1.1516743E0,1.8530216E0],"tree_param":{"num_deleted":"0","num_feature":"17","num_nodes":"19","size_leaf_vector":"1"}},{"base_weights":[-7.3853447E-3,-1.0548377E-1,4.1875083E-2,-2.1476813E-1,2.086845E-2,-6.707818E-2,1.28072E-1,-1.0751609E-2,-8.3989054E-2,-2.2088662E-1,7.934521E-2,9.779636E-2,-4.4017307E-2,-1.7216809E-3,-9.6550025E-2,-1.798125E-1,5.8133487E-2,2.8738135E-3,-8.153676E-2],"categories":[],"categories_nodes":[],"categories_segments":[],"categories_sizes":[],"default_left":[0,0,0,0,0,0,0,0,0,0,0,0,0,0,0,0,0,0,0],"id":67,"left_children":[1,3,5,7,-1,9,11,-1,-1,13,-1,-1,15,-1,-1,17,-1,-1,-1],"loss_changes":[7.508526E-2,1.13893375E-1,1.06741875E-1,2.9969707E-2,0E0,3.273023E-1,2.247886E-1,0E0,0E0,8.8211E-2,0E0,0E0,1.700157E-1,0E0,0E0,5.8052547E-2,0E0,0E0,0E0],"parents":[2147483647,0,0,1,1,2,2,3,3,5,5,6,6,9,9,12,12,15,15],"right_children":[2,4,6,8,-1,10,12,-1,-1,14,-1,-1,16,-1,-1,18,-1,-1,-1],"split_conditions":[6.7E1,1E0,9.131E1,5.6E5,2.086845E-2,5E0,5.14E0,-1.0751609E-2,-8.3989054E-2,9.0424E4,7.934521E-2,9.779636E-2,6.31E5,-1.7216809E-3,-9.6550025E-2,1.38E2,5.8133487E-2,2.8738135E-3,-8.153676E-2],"split_indices":[4,1,13,5,0,8,15,0,0,2,0,0,5,0,0,4,0,0,0],"split_type":[0,0,0,0,0,0,0,0,0,0,0,0,0,0,0,0,0,0,0],"sum_hessian":[1.3623903E1,4.172779E0,9.451124E0,2.4292312E0,1.743548E0,4.272486E0,5.1786385E0,1.0626066E0,1.3666246E0,3.1466067E0,1.1258795E0,1.992647E0,3.1859913E0,1.3424011E0,1.8042055E0,2.1831312E0,1.0028601E0,1.0064893E0,1.176642E0],"tree_param":{"num_deleted":"0","num_feature":"17","num_nodes":"19","size_leaf_vector":"1"}},{"base_weights":[-6.357799E-3,-3.9732832E-2,1.04609825E-1,-1.4991404E-1,9.085929E-3,-1.7891226E-2,5.7894584E-2,1.4089043E-2,-8.0932826E-2,6.375335E-2,-6.144013E-2,-2.1696001E-1,4.0267874E-2,